{"learner":{"attributes":{"best_iteration":"251","best_score":"0.05347522142886495"},"feature_names":["url_length","hostname_length","path_length","query_length","count_dots","count_hyphens","count_underscores","count_slashes","count_at","count_question","count_equals","count_ampersand","count_digits","ratio_digits","is_https","has_ip","num_subdomains","has_www","phish_keyword_count","entropy_hostname","entropy_url","longest_digit_run","ratio_uppercase","has_port","special_char_count","path_depth","has_fragment","tld_length","is_shortener","has_redirect"],"feature_types":[],"gradient_booster":{"model":{"cats":{"enc":[],"feature_segments":[],"sorted_idx":[]},"gbtree_model_param":{"num_parallel_tree":"1","num_trees":"282"},"iteration_indptr":[0,1,2,3,4,5,6,7,8,9,10,11,12,13,14,15,16,17,18,19,20,21,22,23,24,25,26,27,28,29,30,31,32,33,34,35,36,37,38,39,40,41,42,43,44,45,46,47,48,49,50,51,52,53,54,55,56,57,58,59,60,61,62,63,64,65,66,67,68,69,70,71,72,73,74,75,76,77,78,79,80,81,82,83,84,85,86,87,88,89,90,91,92,93,94,95,96,97,98,99,100,101,102,103,104,105,106,107,108,109,110,111,112,113,114,115,116,117,118,119,120,121,122,123,124,125,126,127,128,129,130,131,132,133,134,135,136,137,138,139,140,141,142,143,144,145,146,147,148,149,150,151,152,153,154,155,156,157,158,159,160,161,162,163,164,165,166,167,168,169,170,171,172,173,174,175,176,177,178,179,180,181,182,183,184,185,186,187,188,189,190,191,192,193,194,195,196,197,198,199,200,201,202,203,204,205,206,207,208,209,210,211,212,213,214,215,216,217,218,219,220,221,222,223,224,225,226,227,228,229,230,231,232,233,234,235,236,237,238,239,240,241,242,243,244,245,246,247,248,249,250,251,252,253,254,255,256,257,258,259,260,261,262,263,264,265,266,267,268,269,270,271,272,273,274,275,276,277,278,279,280,281,282],"tree_info":[0,0,0,0,0,0,0,0,0,0,0,0,0,0,0,0,0,0,0,0,0,0,0,0,0,0,0,0,0,0,0,0,0,0,0,0,0,0,0,0,0,0,0,0,0,0,0,0,0,0,0,0,0,0,0,0,0,0,0,0,0,0,0,0,0,0,0,0,0,0,0,0,0,0,0,0,0,0,0,0,0,0,0,0,0,0,0,0,0,0,0,0,0,0,0,0,0,0,0,0,0,0,0,0,0,0,0,0,0,0,0,0,0,0,0,0,0,0,0,0,0,0,0,0,0,0,0,0,0,0,0,0,0,0,0,0,0,0,0,0,0,0,0,0,0,0,0,0,0,0,0,0,0,0,0,0,0,0,0,0,0,0,0,0,0,0,0,0,0,0,0,0,0,0,0,0,0,0,0,0,0,0,0,0,0,0,0,0,0,0,0,0,0,0,0,0,0,0,0,0,0,0,0,0,0,0,0,0,0,0,0,0,0,0,0,0,0,0,0,0,0,0,0,0,0,0,0,0,0,0,0,0,0,0,0,0,0,0,0,0,0,0,0,0,0,0,0,0,0,0,0,0,0,0,0,0,0,0,0,0,0,0,0,0,0,0,0,0,0,0,0,0,0,0,0,0,0,0,0,0,0,0],"trees":[{"base_weights":[-3.550296E-2,-1.3661202E0,1.4968554E0,-1.6449704E0,7.777778E-2,-4E-1,1.7971015E0,-1.6848484E0,-0E0,-1.1111112E0,4.5454547E-2,1.0344827E0,9.646018E-2,-6.666667E-1,-1.7402598E0,-1.1111111E-2,-6.923077E-2,-2.727273E-2,8.1818186E-2,-0E0,-5.555556E-2,-8.8E-2,-2.5E-2],"categories":[],"categories_nodes":[],"categories_segments":[],"categories_sizes":[],"default_left":[0,0,0,0,0,0,0,0,0,0,0,0,0,0,0,0,0,0,0,0,0,0,0],"id":0,"left_children":[1,3,5,7,-1,9,11,13,-1,15,-1,17,-1,19,21,-1,-1,-1,-1,-1,-1,-1,-1],"loss_changes":[1.743389E2,3.9831825E1,2.3357391E1,2.7715225E0,0E0,6.8282824E0,1.4799271E0,1.167099E0,0E0,7.86325E-1,0E0,7.7868342E0,0E0,1.111111E0,6.259918E-2,0E0,0E0,0E0,0E0,0E0,0E0,0E0,0E0],"parents":[2147483647,0,0,1,1,2,2,3,3,5,5,6,6,7,7,9,9,11,11,13,13,14,14],"right_children":[2,4,6,8,-1,10,12,14,-1,16,-1,18,-1,20,22,-1,-1,-1,-1,-1,-1,-1,-1],"split_conditions":[5.593728E-1,7.3543435E-1,-4.262772E-1,3.6531966E0,7.777778E-2,-3.4170142E-1,-2.098405E-1,-2.241492E0,-0E0,-4.2585602E-1,4.5454547E-2,1.6150543E-1,9.646018E-2,-7.292885E-1,-3.669117E-2,-1.1111111E-2,-6.923077E-2,-2.727273E-2,8.1818186E-2,-0E0,-5.555556E-2,-8.8E-2,-2.5E-2],"split_indices":[16,20,0,27,0,1,0,19,0,2,0,1,0,0,0,0,0,0,0,0,0,0,0],"split_type":[0,0,0,0,0,0,0,0,0,0,0,0,0,0,0,0,0,0,0,0,0,0,0],"sum_hessian":[8.35E1,4.475E1,3.875E1,4.125E1,3.5E0,5.25E0,3.35E1,4.025E1,1E0,3.5E0,1.75E0,6.25E0,2.725E1,2.75E0,3.75E1,1.25E0,2.25E0,1.75E0,4.5E0,1.5E0,1.25E0,3.65E1,1E0],"tree_param":{"num_deleted":"0","num_feature":"30","num_nodes":"23","size_leaf_vector":"1"}},{"base_weights":[-2.7252875E-2,-1.2512825E0,1.3939073E0,-1.541624E0,7.737617E-2,-6.3539064E-1,1.6120925E0,-1.6250765E0,3.176657E-2,-7.911725E-3,-4.4063997E-2,2.2198029E-2,8.389245E-2,-1.6655287E0,-1.7381871E-2,-8.516265E-2,-3.6464624E-2],"categories":[],"categories_nodes":[],"categories_segments":[],"categories_sizes":[],"default_left":[0,0,0,0,0,0,0,0,0,0,0,0,0,0,0,0,0],"id":1,"left_children":[1,3,5,7,-1,9,11,13,-1,-1,-1,-1,-1,15,-1,-1,-1],"loss_changes":[1.4630052E2,3.909417E1,1.8259598E1,8.558937E0,0E0,3.8808894E-1,1.9765854E0,1.4973145E0,0E0,0E0,0E0,0E0,0E0,1.2407684E-1,0E0,0E0,0E0],"parents":[2147483647,0,0,1,1,2,2,3,3,5,5,6,6,7,7,13,13],"right_children":[2,4,6,8,-1,10,12,14,-1,-1,-1,-1,-1,16,-1,-1,-1],"split_conditions":[5.593728E-1,5.843965E-1,-4.872673E-1,5.8312947E-1,7.737617E-2,-1.3487072E0,-3.1900188E-1,5.196152E0,3.176657E-2,-7.911725E-3,-4.4063997E-2,2.2198029E-2,8.389245E-2,2.077896E0,-1.7381871E-2,-8.516265E-2,-3.6464624E-2],"split_indices":[16,7,19,20,0,19,20,28,0,0,0,0,0,27,0,0,0],"split_type":[0,0,0,0,0,0,0,0,0,0,0,0,0,0,0,0,0],"sum_hessian":[8.2100235E1,4.4173565E1,3.792667E1,4.0428764E1,3.7448003E0,3.4962814E0,3.443039E1,3.9180317E1,1.24845E0,1.7479149E0,1.7483665E0,2.2479641E0,3.2182426E1,3.7683216E1,1.4970996E0,3.5436115E1,2.2470996E0],"tree_param":{"num_deleted":"0","num_feature":"30","num_nodes":"17","size_leaf_vector":"1"}},{"base_weights":[2.5260864E-2,-1.1587057E0,1.281665E0,-1.4306531E0,7.3931865E-2,-5.951863E-1,1.5951788E0,-1.5397639E0,5.2603193E-2,-1.2006699E0,5.4018784E-2,8.7351215E-1,8.844189E-2,-1.0319225E0,-8.874087E-2,-9.298241E-3,-7.357238E-2,-4.389428E-1,7.752564E-2,-1.2578695E0,3.7777487E-2,1.0403079E-2,-4.2287614E-2,-7.449187E-2,-9.300752E-3],"categories":[],"categories_nodes":[],"categories_segments":[],"categories_sizes":[],"default_left":[0,0,0,0,0,0,0,0,0,0,0,0,0,0,0,0,0,0,0,0,0,0,0,0,0],"id":2,"left_children":[1,3,5,7,-1,9,11,13,-1,15,-1,17,-1,19,-1,-1,-1,21,-1,23,-1,-1,-1,-1,-1],"loss_changes":[1.2343397E2,3.2763607E1,2.4632233E1,1.2251289E1,0E0,7.880553E0,2.8110428E0,2.7045212E0,0E0,1.1661782E0,0E0,8.4264345E0,0E0,6.771096E0,0E0,0E0,0E0,1.1619189E0,0E0,2.9974327E0,0E0,0E0,0E0,0E0,0E0],"parents":[2147483647,0,0,1,1,2,2,3,3,5,5,6,6,7,7,9,9,11,11,13,13,17,17,19,19],"right_children":[2,4,6,8,-1,10,12,14,-1,16,-1,18,-1,20,-1,-1,-1,22,-1,24,-1,-1,-1,-1,-1],"split_conditions":[5.593728E-1,5.843965E-1,-4.6956453E-1,7.3543435E-1,7.3931865E-2,5.0259584E-1,-2.098405E-1,-5.994265E-1,5.2603193E-2,-1.3487072E0,5.4018784E-2,2.621468E-1,8.844189E-2,-2.4857923E-1,-8.874087E-2,-9.298241E-3,-7.357238E-2,-2.5312784E-1,7.752564E-2,-2.5235856E-1,3.7777487E-2,1.0403079E-2,-4.2287614E-2,-7.449187E-2,-9.300752E-3],"split_indices":[16,7,0,20,0,27,0,0,0,19,0,1,0,20,0,0,0,0,0,19,0,0,0,0,0],"split_type":[0,0,0,0,0,0,0,0,0,0,0,0,0,0,0,0,0,0,0,0,0,0,0,0,0],"sum_hessian":[8.098022E1,4.173201E1,3.9248207E1,3.824586E1,3.4861493E0,5.4891224E0,3.3759083E1,3.6999603E1,1.2462575E0,4.2402735E0,1.2488489E0,7.7175703E0,2.6041513E1,1.3412207E1,2.3587399E1,1.248491E0,2.9917822E0,2.7459059E0,4.9716644E0,1.2170118E1,1.2420883E0,1.2486155E0,1.4972903E0,9.684303E0,2.4858148E0],"tree_param":{"num_deleted":"0","num_feature":"30","num_nodes":"25","size_leaf_vector":"1"}},{"base_weights":[2.3449786E-2,-1.1506196E0,1.0187252E0,-1.3477223E0,6.527617E-2,-8.1520045E-1,1.277743E0,-3.0646652E-1,-1.5636686E0,-5.4945555E-2,1.05691E-2,7.4368864E-1,8.132222E-2,-7.2635435E-2,7.451139E-2,-5.2663445E-1,-8.227093E-2,-1.7019345E-1,7.945883E-2,-3.3875134E-2,-6.2005254E-3,-7.9298174E-1,5.822728E-1,-4.8118155E-2,-1.2840566E-2,5.2585978E-2,7.1281814E-3],"categories":[],"categories_nodes":[],"categories_segments":[],"categories_sizes":[],"default_left":[0,0,0,0,0,0,0,0,0,0,0,0,0,0,0,0,0,0,0,0,0,0,0,0,0,0,0],"id":3,"left_children":[1,3,5,7,-1,9,11,13,15,-1,-1,17,-1,-1,-1,19,-1,21,-1,-1,-1,23,25,-1,-1,-1,-1],"loss_changes":[1.01727615E2,2.1099838E1,2.3416615E1,7.947113E0,0E0,2.1079254E0,6.549225E0,1.7982761E1,1.7440796E0,0E0,0E0,1.4410548E1,0E0,0E0,0E0,1.4199746E-1,0E0,5.006305E0,0E0,0E0,0E0,2.731843E-1,8.756008E-1,0E0,0E0,0E0,0E0],"parents":[2147483647,0,0,1,1,2,2,3,3,5,5,6,6,7,7,8,8,11,11,15,15,17,17,21,21,22,22],"right_children":[2,4,6,8,-1,10,12,14,16,-1,-1,18,-1,-1,-1,20,-1,22,-1,-1,-1,24,26,-1,-1,-1,-1],"split_conditions":[2.4366653E-1,5.843965E-1,-4.872673E-1,-5.4446552E-2,6.527617E-2,-1.7354093E-2,2.621468E-1,-3.524223E-1,-1.046191E0,-5.4945555E-2,1.05691E-2,5.843965E-1,8.132222E-2,-7.2635435E-2,7.451139E-2,-1.0475699E0,-8.227093E-2,5.0259584E-1,7.945883E-2,-3.3875134E-2,-6.2005254E-3,2.4243209E-1,-3.397221E-1,-4.8118155E-2,-1.2840566E-2,5.2585978E-2,7.1281814E-3],"split_indices":[4,7,19,25,0,20,1,7,1,0,0,7,0,0,0,20,0,27,0,0,0,19,20,0,0,0,0],"split_type":[0,0,0,0,0,0,0,0,0,0,0,0,0,0,0,0,0,0,0,0,0,0,0,0,0,0,0],"sum_hessian":[8.5053505E1,3.8950157E1,4.6103348E1,3.647441E1,2.475744E0,5.4398994E0,4.066345E1,6.680653E0,2.9793758E1,4.2068276E0,1.233072E0,1.7300137E1,2.3363312E1,4.1954956E0,2.4851575E0,2.7208276E0,2.7072931E1,8.697631E0,8.602506E0,1.4825715E0,1.2382562E0,4.7294216E0,3.9682093E0,2.9899764E0,1.7394453E0,1.2460434E0,2.722166E0],"tree_param":{"num_deleted":"0","num_feature":"30","num_nodes":"27","size_leaf_vector":"1"}},{"base_weights":[-2.6196778E-2,-1.0890619E0,1.2715415E0,-1.3299266E0,7.012638E-2,-1.813052E-1,1.55144E0,-1.4290088E0,5.769832E-2,-8.33388E-1,5.9306454E-2,9.6429133E-1,8.22045E-2,-1.5056696E0,3.1676617E-2,-5.3676434E-2,-1.0156519E-2,6.985089E-2,-9.868006E-3,-5.2577543E-1,-1.6533409E0,-7.034276E-2,6.606174E-2,-2.6829496E-2,-8.3886206E-2],"categories":[],"categories_nodes":[],"categories_segments":[],"categories_sizes":[],"default_left":[0,0,0,0,0,0,0,0,0,0,0,0,0,0,0,0,0,0,0,0,0,0,0,0,0],"id":4,"left_children":[1,3,5,7,-1,9,11,13,-1,15,-1,17,-1,19,-1,-1,-1,-1,-1,21,23,-1,-1,-1,-1],"loss_changes":[1.1964516E2,3.0475578E1,1.6167084E1,1.2473915E1,0E0,7.4137144E0,2.0214081E-1,7.7123184E0,0E0,6.0927653E-1,0E0,3.7426324E0,0E0,5.1370087E0,0E0,0E0,0E0,0E0,0E0,1.3091444E1,6.929016E-2,0E0,0E0,0E0,0E0],"parents":[2147483647,0,0,1,1,2,2,3,3,5,5,6,6,7,7,9,9,11,11,13,13,19,19,20,20],"right_children":[2,4,6,8,-1,10,12,14,-1,16,-1,18,-1,20,-1,-1,-1,-1,-1,22,24,-1,-1,-1,-1],"split_conditions":[5.593728E-1,5.843965E-1,-4.262772E-1,4.143881E-1,7.012638E-2,5.0259584E-1,-2.098405E-1,3.34113E-2,5.769832E-2,-2.4300574E-1,5.9306454E-2,-5.6166434E-1,8.22045E-2,-4.9376017E-1,3.1676617E-2,-5.3676434E-2,-1.0156519E-2,6.985089E-2,-9.868006E-3,-6.9747263E-1,-2.398029E0,-7.034276E-2,6.606174E-2,-2.6829496E-2,-8.3886206E-2],"split_indices":[16,7,0,22,0,27,0,12,0,19,0,2,0,2,0,0,0,0,0,2,19,0,0,0,0],"split_type":[0,0,0,0,0,0,0,0,0,0,0,0,0,0,0,0,0,0,0,0,0,0,0,0,0],"sum_hessian":[8.473813E1,4.667306E1,3.8065067E1,4.2983986E1,3.689077E0,6.2057314E0,3.1859335E1,4.174353E1,1.2404548E0,4.4664025E0,1.7393287E0,5.896904E0,2.5962431E1,4.050792E1,1.2356107E0,2.7248595E0,1.741543E0,4.148816E0,1.7480878E0,5.9023666E0,3.4605553E1,4.157446E0,1.7449204E0,1.2310264E0,3.3374527E1],"tree_param":{"num_deleted":"0","num_feature":"30","num_nodes":"25","size_leaf_vector":"1"}},{"base_weights":[1.2044547E-2,-8.4543717E-1,7.6300524E-2,6.403087E-1,-1.366257E0,-7.016709E-2,8.112029E-2,-1.4856278E0,5.4552097E-2,-1.14765465E-1,-1.5736519E0,-2.5410956E-2,1.6415205E-2,-8.085262E-2,-2.1155976E-2],"categories":[],"categories_nodes":[],"categories_segments":[],"categories_sizes":[],"default_left":[0,0,0,0,0,0,0,0,0,0,0,0,0,0,0],"id":5,"left_children":[1,3,-1,5,7,-1,-1,9,-1,11,13,-1,-1,-1,-1],"loss_changes":[1.1118576E2,4.319179E1,0E0,3.2132412E1,1.359211E1,0E0,0E0,4.567032E0,0E0,7.687265E-1,1.1579361E0,0E0,0E0,0E0,0E0],"parents":[2147483647,0,0,1,1,3,3,4,4,7,7,9,9,10,10],"right_children":[2,4,-1,6,8,-1,-1,10,-1,12,14,-1,-1,-1,-1],"split_conditions":[-7.99785E-2,-4.9376017E-1,7.6300524E-2,-6.9747263E-1,5.843965E-1,-7.016709E-2,8.112029E-2,-7.292885E-1,5.4552097E-2,-1.3716929E0,2.6937008E-1,-2.5410956E-2,1.6415205E-2,-8.085262E-2,-2.1155976E-2],"split_indices":[0,2,0,2,7,0,0,0,0,20,20,0,0,0,0],"split_type":[0,0,0,0,0,0,0,0,0,0,0,0,0,0,0],"sum_hessian":[8.365242E1,5.3686802E1,2.9965618E1,1.3875279E1,3.9811523E1,4.364418E0,9.510861E0,3.8344257E1,1.4672675E0,2.4525633E0,3.5891693E1,1.2211336E0,1.2314297E0,3.419626E1,1.6954349E0],"tree_param":{"num_deleted":"0","num_feature":"30","num_nodes":"15","size_leaf_vector":"1"}},{"base_weights":[1.4884758E-1,-6.2379366E-1,7.6469176E-2,6.577561E-1,-1.1858482E0,-6.9875985E-2,7.855851E-2,-1.3547182E0,5.9019625E-2,-2.212318E-1,-1.4443655E0,1.6267575E-2,-3.138026E-2,-7.441259E-2,-6.9288933E-1,-4.7419E-2,-4.8826896E-3],"categories":[],"categories_nodes":[],"categories_segments":[],"categories_sizes":[],"default_left":[0,0,0,0,0,0,0,0,0,0,0,0,0,0,0,0,0],"id":6,"left_children":[1,3,-1,5,7,-1,-1,9,-1,11,13,-1,-1,-1,15,-1,-1],"loss_changes":[8.569078E1,3.7979977E1,0E0,3.296143E1,1.6086906E1,0E0,0E0,3.1665688E0,0E0,1.0249962E0,1.1352539E-2,0E0,0E0,0E0,4.572127E-1,0E0,0E0],"parents":[2147483647,0,0,1,1,3,3,4,4,7,7,9,9,10,10,14,14],"right_children":[2,4,-1,6,8,-1,-1,10,-1,12,14,-1,-1,-1,16,-1,-1],"split_conditions":[-7.99785E-2,-4.2585602E-1,7.6469176E-2,-6.9747263E-1,5.843965E-1,-6.9875985E-2,7.855851E-2,-7.292885E-1,5.9019625E-2,-2.241492E0,2.191442E-1,1.6267575E-2,-3.138026E-2,-7.441259E-2,-2.4106003E-1,-4.7419E-2,-4.8826896E-3],"split_indices":[0,2,0,2,7,0,0,0,0,19,5,0,0,0,1,0,0],"split_type":[0,0,0,0,0,0,0,0,0,0,0,0,0,0,0,0,0],"sum_hessian":[7.8441284E1,5.0645046E1,2.779624E1,1.5388107E1,3.525694E1,4.5715823E0,1.0816525E1,3.3307392E1,1.9495457E0,2.6953695E0,3.0612022E1,1.2344193E0,1.4609501E0,2.7996584E1,2.6154385E0,1.4148587E0,1.2005798E0],"tree_param":{"num_deleted":"0","num_feature":"30","num_nodes":"17","size_leaf_vector":"1"}},{"base_weights":[1.4035305E-3,-1.0249683E0,1.1595442E0,-1.2311404E0,6.243437E-2,-1.5286522E-1,1.36604E0,-5.0088835E-1,-1.3619918E0,-7.409263E-1,5.10783E-2,6.8499625E-1,7.515406E-2,-6.607379E-2,6.1577886E-2,-3.6975756E-1,-7.140532E-2,-5.0568148E-3,-4.704673E-2,-4.2338803E-2,6.5265015E-2,-2.4712993E-2,-3.966398E-3],"categories":[],"categories_nodes":[],"categories_segments":[],"categories_sizes":[],"default_left":[0,0,0,0,0,0,0,0,0,0,0,0,0,0,0,0,0,0,0,0,0,0,0],"id":7,"left_children":[1,3,5,7,-1,9,11,13,15,17,-1,19,-1,-1,-1,21,-1,-1,-1,-1,-1,-1,-1],"loss_changes":[9.683816E1,2.1783772E1,1.0581825E1,3.1498833E0,0E0,4.9718404E0,2.0664482E0,1.2539521E1,1.664875E0,4.993937E-1,0E0,8.131054E0,0E0,0E0,0E0,8.5092366E-2,0E0,0E0,0E0,0E0,0E0,0E0,0E0],"parents":[2147483647,0,0,1,1,2,2,3,3,5,5,6,6,7,7,8,8,9,9,11,11,15,15],"right_children":[2,4,6,8,-1,10,12,14,16,18,-1,20,-1,-1,-1,22,-1,-1,-1,-1,-1,-1,-1],"split_conditions":[5.593728E-1,7.3543435E-1,-4.6956453E-1,-5.4446552E-2,6.243437E-2,5.0259584E-1,-2.098405E-1,-3.524223E-1,-7.292885E-1,-1.3487072E0,5.10783E-2,2.621468E-1,7.515406E-2,-6.607379E-2,6.1577886E-2,-1.3716929E0,-7.140532E-2,-5.0568148E-3,-4.704673E-2,-4.2338803E-2,6.5265015E-2,-2.4712993E-2,-3.966398E-3],"split_indices":[16,20,0,25,0,27,0,7,0,19,0,1,0,0,0,20,0,0,0,0,0,0,0],"split_type":[0,0,0,0,0,0,0,0,0,0,0,0,0,0,0,0,0,0,0,0,0,0,0],"sum_hessian":[7.946693E1,4.219113E1,3.7275795E1,3.910377E1,3.087359E0,5.1029654E0,3.217283E1,6.6757646E0,3.242801E1,3.6463063E0,1.456659E0,6.3942533E0,2.5778576E1,4.691036E0,1.9847283E0,2.4376073E0,2.99904E1,1.2270039E0,2.4193022E0,1.7378143E0,4.656439E0,1.2149537E0,1.2226537E0],"tree_param":{"num_deleted":"0","num_feature":"30","num_nodes":"23","size_leaf_vector":"1"}},{"base_weights":[-1.3551915E-3,-7.3055404E-1,7.0618026E-2,4.0928322E-1,-1.1722668E0,-6.786438E-2,7.3953085E-2,-1.3223338E0,5.543932E-2,-1.9776182E-1,-7.0286855E-2,-2.9971663E-2,1.6656717E-2],"categories":[],"categories_nodes":[],"categories_segments":[],"categories_sizes":[],"default_left":[0,0,0,0,0,0,0,0,0,0,0,0,0],"id":8,"left_children":[1,3,-1,5,7,-1,-1,9,-1,11,-1,-1,-1],"loss_changes":[8.260179E1,2.709387E1,0E0,3.1308687E1,1.4595718E1,0E0,0E0,3.1401901E0,0E0,9.8442584E-1,0E0,0E0,0E0],"parents":[2147483647,0,0,1,1,3,3,4,4,7,7,9,9],"right_children":[2,4,-1,6,8,-1,-1,10,-1,12,-1,-1,-1],"split_conditions":[-7.99785E-2,-4.2585602E-1,7.0618026E-2,-6.9747263E-1,5.843965E-1,-6.786438E-2,7.3953085E-2,-7.292885E-1,5.543932E-2,-2.9004773E-1,-7.0286855E-2,-2.9971663E-2,1.6656717E-2],"split_indices":[0,2,0,2,7,0,0,0,0,2,0,0,0],"split_type":[0,0,0,0,0,0,0,0,0,0,0,0,0],"sum_hessian":[7.8126564E1,5.1860172E1,2.6266394E1,1.4504587E1,3.7355583E1,5.3692913E0,9.135296E0,3.544407E1,1.9115154E0,2.6799505E0,3.276412E1,1.4521611E0,1.2277895E0],"tree_param":{"num_deleted":"0","num_feature":"30","num_nodes":"13","size_leaf_vector":"1"}},{"base_weights":[-2.9604485E-2,-6.9837457E-1,1.2816018E0,6.845831E-2,-9.4831043E-1,5.469637E-1,7.120851E-2,-1.0901173E0,4.658208E-2,-1.8619847E-1,5.3802725E-2,-1.1887214E0,5.4511428E-2,4.0195505E-3,-1.8288724E-2,-1.2328492E0,1.0729816E-2,-7.058998E-2,-4.058443E-2],"categories":[],"categories_nodes":[],"categories_segments":[],"categories_sizes":[],"default_left":[0,0,0,0,0,0,0,0,0,0,0,0,0,0,0,0,0,0,0],"id":9,"left_children":[1,3,5,-1,7,9,-1,11,-1,13,-1,15,-1,-1,-1,17,-1,-1,-1],"loss_changes":[7.001476E1,2.8607029E1,2.0464554E0,0E0,1.3742077E1,2.5308828E0,0E0,1.0938431E1,0E0,1.9077484E-1,0E0,2.951397E0,0E0,0E0,0E0,2.0355835E0,0E0,0E0,0E0],"parents":[2147483647,0,0,1,1,2,2,4,4,5,5,7,7,9,9,11,11,15,15],"right_children":[2,4,6,-1,8,10,-1,12,-1,14,-1,16,-1,-1,-1,18,-1,-1,-1],"split_conditions":[-7.99785E-2,3.2444283E-1,9.317084E-2,6.845831E-2,3.6278817E-1,4.6342954E-1,7.120851E-2,4.143881E-1,4.658208E-2,1.6451994E-1,5.3802725E-2,3.6531966E0,5.4511428E-2,4.0195505E-3,-1.8288724E-2,-3.4170142E-1,1.0729816E-2,-7.058998E-2,-4.058443E-2],"split_indices":[0,14,0,0,1,1,0,22,0,20,0,27,0,0,0,1,0,0,0],"split_type":[0,0,0,0,0,0,0,0,0,0,0,0,0,0,0,0,0,0,0],"sum_hessian":[7.7823204E1,5.1846634E1,2.5976572E1,5.1086183E0,4.6738018E1,5.007907E0,2.0968666E1,4.3850464E1,2.8875535E0,2.3707843E0,2.6371224E0,4.2388294E1,1.462169E0,1.1765163E0,1.194268E0,4.1213787E1,1.1745073E0,2.7273258E1,1.3940528E1],"tree_param":{"num_deleted":"0","num_feature":"30","num_nodes":"19","size_leaf_vector":"1"}},{"base_weights":[1.5233713E-3,-8.6580646E-1,1.0567204E0,-1.1151118E0,6.261632E-2,-5.8254904E-1,1.2241502E0,-1.2334198E0,5.893911E-2,-6.8580783E-3,-3.597487E-2,8.4647053E-1,6.9473475E-2,-2.9146782E-1,-1.4054186E0,-6.9060355E-2,6.4628504E-2,-5.9856307E-2,6.069535E-2,-7.2405994E-2,-5.886321E-3,4.082011E-2,-7.3808646E-1,-4.6132784E-2,-1.1089156E-2],"categories":[],"categories_nodes":[],"categories_segments":[],"categories_sizes":[],"default_left":[0,0,0,0,0,0,0,0,0,0,0,0,0,0,0,0,0,0,0,0,0,0,0,0,0],"id":10,"left_children":[1,3,5,7,-1,9,11,13,-1,-1,-1,15,-1,17,19,21,-1,-1,-1,-1,-1,-1,23,-1,-1],"loss_changes":[7.323743E1,2.4590237E1,1.0621506E1,1.2262161E1,0E0,1.4670193E-1,8.89164E-1,5.8054886E0,0E0,0E0,0E0,5.2474384E0,0E0,1.1248674E1,1.5987816E0,3.6161175E0,0E0,0E0,0E0,0E0,0E0,0E0,1.2154615E-1,0E0,0E0],"parents":[2147483647,0,0,1,1,2,2,3,3,5,5,6,6,7,7,11,11,13,13,14,14,15,15,22,22],"right_children":[2,4,6,8,-1,10,12,14,-1,-1,-1,16,-1,18,20,22,-1,-1,-1,-1,-1,-1,24,-1,-1],"split_conditions":[5.593728E-1,5.843965E-1,-4.872673E-1,4.143881E-1,6.261632E-2,-1.3632412E0,2.621468E-1,-4.9376017E-1,5.893911E-2,-6.8580783E-3,-3.597487E-2,2.537193E-1,6.9473475E-2,-6.9747263E-1,3.1082013E-1,-5.354049E-1,6.4628504E-2,-5.9856307E-2,6.069535E-2,-7.2405994E-2,-5.886321E-3,4.082011E-2,2.4243209E-1,-4.6132784E-2,-1.1089156E-2],"split_indices":[16,7,19,22,0,19,1,2,0,0,0,20,0,2,13,20,0,0,0,0,0,0,19,0,0],"split_type":[0,0,0,0,0,0,0,0,0,0,0,0,0,0,0,0,0,0,0,0,0,0,0,0,0],"sum_hessian":[7.80234E1,4.2922394E1,3.510101E1,3.882608E1,4.0963116E0,3.023102E0,3.2077908E1,3.736146E1,1.4646193E0,1.1816528E0,1.8414491E0,1.1629645E1,2.0448261E1,6.1848297E0,3.1176632E1,4.0870266E0,7.542619E0,3.9894664E0,2.1953633E0,3.0055378E1,1.1212546E0,1.6641816E0,2.422845E0,1.2050272E0,1.2178175E0],"tree_param":{"num_deleted":"0","num_feature":"30","num_nodes":"25","size_leaf_vector":"1"}},{"base_weights":[2.9718788E-2,-8.436799E-1,1.0473248E0,-1.1015598E0,6.051984E-2,-3.8811803E-1,1.244165E0,-1.151277E0,-6.3719E-3,1.1980312E-2,-3.9988816E-2,6.79082E-1,6.8367064E-2,-3.7951E-1,-1.2266973E0,6.1011013E-2,-3.4881808E-2,-4.607684E-2,1.5656738E-2,-6.391129E-2,-1.858042E-2],"categories":[],"categories_nodes":[],"categories_segments":[],"categories_sizes":[],"default_left":[0,0,0,0,0,0,0,0,0,0,0,0,0,0,0,0,0,0,0,0,0],"id":11,"left_children":[1,3,5,7,-1,9,11,13,-1,-1,-1,15,-1,17,19,-1,-1,-1,-1,-1,-1],"loss_changes":[6.40025E1,2.1870323E1,9.876957E0,1.5468864E0,0E0,1.4246407E0,1.1231079E0,1.4638481E0,0E0,0E0,0E0,6.2613125E0,0E0,1.9400384E0,8.357506E-1,0E0,0E0,0E0,0E0,0E0,0E0],"parents":[2147483647,0,0,1,1,2,2,3,3,5,5,6,6,7,7,11,11,13,13,14,14],"right_children":[2,4,6,8,-1,10,12,14,-1,-1,-1,16,-1,18,20,-1,-1,-1,-1,-1,-1],"split_conditions":[5.593728E-1,7.3543435E-1,-5.561392E-1,2.077896E0,6.051984E-2,-9.091202E-1,-2.098405E-1,-8.158632E-1,-6.3719E-3,1.1980312E-2,-3.9988816E-2,-5.4446552E-2,6.8367064E-2,-3.524223E-1,-1.6655317E-1,6.1011013E-2,-3.4881808E-2,-4.607684E-2,1.5656738E-2,-6.391129E-2,-1.858042E-2],"split_indices":[16,20,0,27,0,20,0,0,0,0,0,25,0,7,0,0,0,0,0,0,0],"split_type":[0,0,0,0,0,0,0,0,0,0,0,0,0,0,0,0,0,0,0,0,0],"sum_hessian":[7.00178E1,3.777064E1,3.2247158E1,3.396963E1,3.80101E0,3.7715619E0,2.8475595E1,3.214705E1,1.8225832E0,1.6592993E0,2.1122627E0,6.2618546E0,2.2213741E1,3.3988612E0,2.8748186E1,4.576624E0,1.685231E0,1.7213576E0,1.6775036E0,2.6647535E1,2.1006503E0],"tree_param":{"num_deleted":"0","num_feature":"30","num_nodes":"21","size_leaf_vector":"1"}},{"base_weights":[-1.1038901E-2,-8.700473E-1,9.8252517E-1,-1.0844905E0,5.6572456E-2,1.6724044E-1,6.697615E-2,-1.1805098E0,4.5484956E-2,8.860509E-1,-9.301675E-1,-4.6872488E-1,-1.293814E0,-5.5790995E-3,6.0074206E-2,-5.9180766E-2,-3.2622335E-3,-5.7175744E-2,5.224461E-2,-2.065413E-2,-6.698718E-2],"categories":[],"categories_nodes":[],"categories_segments":[],"categories_sizes":[],"default_left":[0,0,0,0,0,0,0,0,0,0,0,0,0,0,0,0,0,0,0,0,0],"id":12,"left_children":[1,3,5,7,-1,9,-1,11,-1,13,15,17,19,-1,-1,-1,-1,-1,-1,-1,-1],"loss_changes":[6.1744724E1,1.78772E1,9.540951E0,7.880905E0,0E0,9.785113E0,0E0,2.1639404E0,0E0,2.4552073E0,1.0152802E0,7.6145453E0,6.2234116E-1,0E0,0E0,0E0,0E0,0E0,0E0,0E0,0E0],"parents":[2147483647,0,0,1,1,2,2,3,3,5,5,7,7,9,9,10,10,11,11,12,12],"right_children":[2,4,6,8,-1,10,-1,12,-1,14,16,18,20,-1,-1,-1,-1,-1,-1,-1,-1],"split_conditions":[5.593728E-1,7.3543435E-1,-2.098405E-1,8.9836806E-1,5.6572456E-2,-4.2585602E-1,6.697615E-2,-4.9376017E-1,4.5484956E-2,-5.561392E-1,-2.2214358E-1,-6.9747263E-1,-7.292885E-1,-5.5790995E-3,6.0074206E-2,-5.9180766E-2,-3.2622335E-3,-5.7175744E-2,5.224461E-2,-2.065413E-2,-6.698718E-2],"split_indices":[16,20,0,25,0,2,0,2,0,0,2,2,0,0,0,0,0,0,0,0,0],"split_type":[0,0,0,0,0,0,0,0,0,0,0,0,0,0,0,0,0,0,0,0,0],"sum_hessian":[7.034308E1,3.7792786E1,3.2550293E1,3.4549286E1,3.2435014E0,1.0359809E1,2.2190485E1,3.3351456E1,1.1978302E0,6.376047E0,3.983762E0,5.2853546E0,2.80661E1,1.6869437E0,4.6891036E0,2.795991E0,1.1877711E0,3.8247478E0,1.460607E0,1.8864222E0,2.6179678E1],"tree_param":{"num_deleted":"0","num_feature":"30","num_nodes":"21","size_leaf_vector":"1"}},{"base_weights":[3.1786855E-2,-7.90259E-1,9.2411125E-1,-9.6770686E-1,5.433135E-2,-4.1005212E-1,1.1757811E0,-1.0987802E0,5.810095E-2,-8.9006406E-1,4.3278202E-2,6.0640234E-1,6.553152E-2,-1.2162467E-1,-1.2559761E0,-1.0891288E-2,-5.5016357E-2,5.6423623E-2,-3.275741E-1,-5.1649343E-2,5.429401E-2,-1.3229545E0,9.827865E-3,8.9770986E-4,-2.610595E-2,-1.727142E-2,-6.762237E-2],"categories":[],"categories_nodes":[],"categories_segments":[],"categories_sizes":[],"default_left":[0,0,0,0,0,0,0,0,0,0,0,0,0,0,0,0,0,0,0,0,0,0,0,0,0,0,0],"id":13,"left_children":[1,3,5,7,-1,9,11,13,-1,15,-1,17,-1,19,21,-1,-1,-1,23,-1,-1,25,-1,-1,-1,-1,-1],"loss_changes":[5.1238304E1,1.3167328E1,1.1722858E1,1.0702312E1,0E0,4.4775124E0,1.3875847E0,4.8119698E0,0E0,4.5178723E-1,0E0,3.930968E0,0E0,7.269227E0,2.9583473E0,0E0,0E0,0E0,2.3750827E-1,0E0,0E0,3.0091858E-1,0E0,0E0,0E0,0E0,0E0],"parents":[2147483647,0,0,1,1,2,2,3,3,5,5,6,6,7,7,9,9,11,11,13,13,14,14,18,18,21,21],"right_children":[2,4,6,8,-1,10,12,14,-1,16,-1,18,-1,20,22,-1,-1,-1,24,-1,-1,26,-1,-1,-1,-1,-1],"split_conditions":[5.593728E-1,5.843965E-1,-4.6956453E-1,4.143881E-1,5.433135E-2,5.0259584E-1,-2.098405E-1,-4.9376017E-1,5.810095E-2,-6.860012E-1,4.3278202E-2,-5.6166434E-1,6.553152E-2,-6.9747263E-1,3.5945427E-1,-1.0891288E-2,-5.5016357E-2,5.6423623E-2,-2.5312784E-1,-5.1649343E-2,5.429401E-2,-2.3944836E0,9.827865E-3,8.9770986E-4,-2.610595E-2,-1.727142E-2,-6.762237E-2],"split_indices":[16,7,0,22,0,27,0,2,0,0,0,2,0,2,13,0,0,0,0,0,0,19,0,0,0,0,0],"split_type":[0,0,0,0,0,0,0,0,0,0,0,0,0,0,0,0,0,0,0,0,0,0,0,0,0,0,0],"sum_hessian":[6.785596E1,3.537835E1,3.2477604E1,3.2765026E1,2.6133213E0,5.0542846E0,2.742332E1,3.1321436E1,1.4435928E0,3.8919854E0,1.1622989E0,6.3037367E0,2.1119585E1,4.586252E0,2.6735184E1,1.4123825E0,2.4796028E0,3.9099338E0,2.3938026E0,2.6959877E0,1.8902643E0,2.5642002E1,1.0931818E0,1.1892698E0,1.2045327E0,1.1232939E0,2.4518707E1],"tree_param":{"num_deleted":"0","num_feature":"30","num_nodes":"27","size_leaf_vector":"1"}},{"base_weights":[-1.5096298E-2,-7.902E-1,9.188988E-1,-1.0160899E0,5.5841234E-2,-3.9740032E-1,1.192787E0,-1.1114318E0,4.331408E-2,-8.567362E-1,4.151304E-2,1.539877E-2,6.1784126E-2,-5.679775E-1,-1.290256E0,-1.2648496E-3,-5.5788666E-2,-5.4253656E-2,3.2819855E-1,-6.592527E-2,-1.7359586E-2,-4.0249503E-3,3.4764722E-2],"categories":[],"categories_nodes":[],"categories_segments":[],"categories_sizes":[],"default_left":[0,0,0,0,0,0,0,0,0,0,0,0,0,0,0,0,0,0,0,0,0,0,0],"id":14,"left_children":[1,3,5,7,-1,9,11,13,-1,15,-1,-1,-1,17,19,-1,-1,-1,21,-1,-1,-1,-1],"loss_changes":[4.870372E1,1.6967844E1,1.1476347E1,6.9544945E0,0E0,4.0983825E0,5.8771515E-1,2.397831E0,0E0,1.0191665E0,0E0,0E0,0E0,4.8799477E0,1.6701126E-1,0E0,0E0,0E0,7.0704186E-1,0E0,0E0,0E0,0E0],"parents":[2147483647,0,0,1,1,2,2,3,3,5,5,6,6,7,7,9,9,13,13,14,14,18,18],"right_children":[2,4,6,8,-1,10,12,14,-1,16,-1,-1,-1,18,20,-1,-1,-1,22,-1,-1,-1,-1],"split_conditions":[5.593728E-1,7.3543435E-1,-4.6956453E-1,8.9836806E-1,5.5841234E-2,5.0259584E-1,-3.3970252E-1,-6.4271384E-1,4.331408E-2,-1.3487072E0,4.151304E-2,1.539877E-2,6.1784126E-2,-9.859868E-1,5.196152E0,-1.2648496E-3,-5.5788666E-2,-5.4253656E-2,-3.722582E-1,-6.592527E-2,-1.7359586E-2,-4.0249503E-3,3.4764722E-2],"split_indices":[16,20,0,25,0,27,0,0,0,19,0,0,0,20,28,0,0,0,19,0,0,0,0],"split_type":[0,0,0,0,0,0,0,0,0,0,0,0,0,0,0,0,0,0,0,0,0,0,0],"sum_hessian":[6.527262E1,3.5754578E1,2.9518045E1,3.2385635E1,3.3689408E0,5.0064125E0,2.4511633E1,3.1214197E1,1.171438E0,3.8631384E0,1.1432738E0,1.5115839E0,2.300005E1,8.762072E0,2.2452126E1,1.178412E0,2.6847265E0,5.4224973E0,3.339574E0,2.1412607E1,1.0395195E0,1.9496695E0,1.3899045E0],"tree_param":{"num_deleted":"0","num_feature":"30","num_nodes":"23","size_leaf_vector":"1"}},{"base_weights":[1.32733295E-2,-7.5981855E-1,9.9155307E-1,-9.874622E-1,5.611527E-2,-2.0320162E-2,1.1075428E0,-1.0484107E0,2.2934867E-2,5.9293115E-1,6.305604E-2,-3.1352925E-1,-1.1634358E0,5.297208E-2,-3.9207178E-1,-5.290689E-2,5.0065607E-2,-1.6597667E-1,-6.205603E-2,-2.4898693E-2,-5.605599E-3,1.9502332E-2,-3.459511E-2],"categories":[],"categories_nodes":[],"categories_segments":[],"categories_sizes":[],"default_left":[0,0,0,0,0,0,0,0,0,0,0,0,0,0,0,0,0,0,0,0,0,0,0],"id":15,"left_children":[1,3,5,7,-1,-1,9,11,-1,13,-1,15,17,-1,19,-1,-1,21,-1,-1,-1,-1,-1],"loss_changes":[5.0923386E1,1.72267E1,5.268507E0,3.4858932E0,0E0,0E0,1.4420662E0,2.4262772E0,0E0,4.2090197E0,0E0,6.774756E0,1.977665E0,0E0,4.4479012E-2,0E0,0E0,1.2028892E0,0E0,0E0,0E0,0E0,0E0],"parents":[2147483647,0,0,1,1,2,2,3,3,6,6,7,7,9,9,11,11,12,12,14,14,17,17],"right_children":[2,4,6,8,-1,-1,10,12,-1,14,-1,16,18,-1,20,-1,-1,22,-1,-1,-1,-1,-1],"split_conditions":[5.593728E-1,5.843965E-1,-5.806995E-1,3.34113E-2,5.611527E-2,-2.0320162E-2,-2.098405E-1,-5.4446552E-2,2.2934867E-2,-5.4446552E-2,6.305604E-2,-3.524223E-1,-2.241492E0,5.297208E-2,-2.9641518E-1,-5.290689E-2,5.0065607E-2,-7.292885E-1,-6.205603E-2,-2.4898693E-2,-5.605599E-3,1.9502332E-2,-3.459511E-2],"split_indices":[16,7,19,12,0,0,0,25,0,25,0,7,19,0,0,0,0,0,0,0,0,0,0],"split_type":[0,0,0,0,0,0,0,0,0,0,0,0,0,0,0,0,0,0,0,0,0,0,0],"sum_hessian":[6.5336075E1,3.6620106E1,2.8715965E1,3.309286E1,3.5272477E0,2.0082226E0,2.6707743E1,3.201848E1,1.0743818E0,7.255771E0,1.9451973E1,4.837573E0,2.7180904E1,4.872513E0,2.383258E0,3.2131615E0,1.6244118E0,2.1905932E0,2.4990313E1,1.1641535E0,1.2191046E0,1.1904145E0,1.0001786E0],"tree_param":{"num_deleted":"0","num_feature":"30","num_nodes":"23","size_leaf_vector":"1"}},{"base_weights":[6.0802266E-2,-7.9537886E-1,8.713313E-1,-9.652146E-1,5.971813E-2,2.6013598E-1,5.8359116E-2,-1.1026999E0,4.2476628E-2,9.2690164E-1,-5.9958345E-1,-1.1708643E0,2.350735E-3,5.4502327E-2,4.7106533E-3,-4.2352054E-2,-2.0018301E-4,-1.4023629E-2,-1.1981491E0,-3.3371963E-2,-6.3175716E-2],"categories":[],"categories_nodes":[],"categories_segments":[],"categories_sizes":[],"default_left":[0,0,0,0,0,0,0,0,0,0,0,0,0,0,0,0,0,0,0,0,0],"id":16,"left_children":[1,3,5,7,-1,9,-1,11,-1,13,15,17,-1,-1,-1,-1,-1,-1,19,-1,-1],"loss_changes":[4.3443733E1,1.1453272E1,5.504925E0,8.081753E0,0E0,7.29943E0,0E0,2.175373E0,0E0,8.5075474E-1,8.434355E-1,2.8538895E-1,0E0,0E0,0E0,0E0,0E0,0E0,7.05719E-3,0E0,0E0],"parents":[2147483647,0,0,1,1,2,2,3,3,5,5,7,7,9,9,10,10,11,11,18,18],"right_children":[2,4,6,8,-1,10,-1,12,-1,14,16,18,-1,-1,-1,-1,-1,-1,20,-1,-1],"split_conditions":[2.4366653E-1,4.143881E-1,-2.098405E-1,-1.8431125E-2,5.971813E-2,-4.2585602E-1,5.8359116E-2,2.077896E0,4.2476628E-2,-1.7524077E-2,-2.4106003E-1,-2.398029E0,2.350735E-3,5.4502327E-2,4.7106533E-3,-4.2352054E-2,-2.0018301E-4,-1.4023629E-2,-5.6166434E-1,-3.3371963E-2,-6.3175716E-2],"split_indices":[4,22,0,2,0,2,0,27,0,20,1,19,0,0,0,0,0,0,2,0,0],"split_type":[0,0,0,0,0,0,0,0,0,0,0,0,0,0,0,0,0,0,0,0,0],"sum_hessian":[6.060401E1,2.9481108E1,3.1122906E1,2.7637033E1,1.8440735E0,1.0764315E1,2.0358591E1,2.6055439E1,1.5815938E0,6.0184727E0,4.7458425E0,2.4579756E1,1.4756833E0,4.774047E0,1.2444257E0,3.0545104E0,1.6913319E0,1.0661805E0,2.3513577E1,3.807869E0,1.9705708E1],"tree_param":{"num_deleted":"0","num_feature":"30","num_nodes":"21","size_leaf_vector":"1"}},{"base_weights":[-1.8930739E-2,-7.8744006E-1,8.5050994E-1,-9.822233E-1,5.1605422E-2,-3.4342453E-1,1.1461493E0,-1.6824563E-1,-1.1264744E0,-8.095713E-1,4.2760607E-2,6.6292953E-1,6.1223038E-2,-5.014804E-2,5.196873E-2,-2.6904854E-1,-1.2061448E0,-1.9436692E-3,-5.0927468E-2,-8.053021E-3,4.590204E-2,-2.1146178E-2,1.2837797E-3,-6.2389117E-2,-9.34584E-3],"categories":[],"categories_nodes":[],"categories_segments":[],"categories_sizes":[],"default_left":[0,0,0,0,0,0,0,0,0,0,0,0,0,0,0,0,0,0,0,0,0,0,0,0,0],"id":17,"left_children":[1,3,5,7,-1,9,11,13,15,17,-1,19,-1,-1,-1,21,23,-1,-1,-1,-1,-1,-1,-1,-1],"loss_changes":[4.1190723E1,1.2606737E1,1.0606741E1,3.3399582E0,0E0,4.330957E0,7.460785E-2,6.7888575E0,1.4077721E0,7.983029E-1,0E0,1.2928839E0,0E0,0E0,0E0,1.670039E-1,7.392616E-1,0E0,0E0,0E0,0E0,0E0,0E0,0E0,0E0],"parents":[2147483647,0,0,1,1,2,2,3,3,5,5,6,6,7,7,8,8,9,9,11,11,15,15,16,16],"right_children":[2,4,6,8,-1,10,12,14,16,18,-1,20,-1,-1,-1,22,24,-1,-1,-1,-1,-1,-1,-1,-1],"split_conditions":[5.593728E-1,5.843965E-1,-3.3970252E-1,-4.9376017E-1,5.1605422E-2,5.0259584E-1,-2.098405E-1,-6.9747263E-1,-7.292885E-1,-7.6854324E-1,4.2760607E-2,2.4243209E-1,6.1223038E-2,-5.014804E-2,5.196873E-2,-7.7257586E-1,5.353784E-1,-1.9436692E-3,-5.0927468E-2,-8.053021E-3,4.590204E-2,-2.1146178E-2,1.2837797E-3,-6.2389117E-2,-9.34584E-3],"split_indices":[16,7,0,2,0,27,0,2,0,20,0,19,0,0,0,0,20,0,0,0,0,0,0,0,0],"split_type":[0,0,0,0,0,0,0,0,0,0,0,0,0,0,0,0,0,0,0,0,0,0,0,0,0],"sum_hessian":[5.9644447E1,3.1709948E1,2.79345E1,2.9059322E1,2.6506257E0,5.5121484E0,2.2422352E1,4.700692E0,2.4358631E1,4.2024255E0,1.3097229E0,4.447072E0,1.797528E1,2.8796985E0,1.8209937E0,2.4430587E0,2.1915571E1,1.1494269E0,3.0529983E0,1.1384925E0,3.3085794E0,1.3192824E0,1.1237763E0,2.0839975E1,1.0755956E0],"tree_param":{"num_deleted":"0","num_feature":"30","num_nodes":"25","size_leaf_vector":"1"}},{"base_weights":[4.7045235E-2,-5.4514843E-1,1.0056599E0,4.4999453E-1,-1.0147E0,2.9058138E-1,6.0371127E-2,-5.7406094E-2,6.454055E-2,-1.1721879E-1,-1.1063498E0,-5.784849E-1,5.0956097E-2,1.9164978E-2,-2.539433E-2,-5.726845E-2,-2.1291515E-2,-7.5395233E-3,-3.4639653E-2],"categories":[],"categories_nodes":[],"categories_segments":[],"categories_sizes":[],"default_left":[0,0,0,0,0,0,0,0,0,0,0,0,0,0,0,0,0,0,0],"id":18,"left_children":[1,3,5,7,9,11,-1,-1,-1,13,15,17,-1,-1,-1,-1,-1,-1,-1],"loss_changes":[3.689341E1,1.925204E1,3.2271347E0,1.9740139E1,2.1434937E0,4.8787613E0,0E0,0E0,0E0,9.1408634E-1,1.7495728E-1,7.77508E-2,0E0,0E0,0E0,0E0,0E0,0E0,0E0],"parents":[2147483647,0,0,1,1,2,2,3,3,4,4,5,5,9,9,10,10,11,11],"right_children":[2,4,6,8,10,12,-1,-1,-1,14,16,18,-1,-1,-1,-1,-1,-1,-1],"split_conditions":[-1.6655317E-1,-4.2585602E-1,5.593728E-1,-6.9747263E-1,-7.292885E-1,9.317084E-2,6.0371127E-2,-5.7406094E-2,6.454055E-2,-2.241492E0,1.2518373E-1,-5.237152E-2,5.0956097E-2,1.9164978E-2,-2.539433E-2,-5.726845E-2,-2.1291515E-2,-7.5395233E-3,-3.4639653E-2],"split_indices":[0,2,16,2,0,0,0,0,0,19,20,19,0,0,0,0,0,0,0],"split_type":[0,0,0,0,0,0,0,0,0,0,0,0,0,0,0,0,0,0,0],"sum_hessian":[6.302343E1,3.9223835E1,2.3799595E1,1.2587726E1,2.663611E1,5.7744045E0,1.802519E1,4.213589E0,8.374137E0,2.67918E0,2.395693E1,2.7271688E0,3.0472357E0,1.1827357E0,1.4964443E0,2.2011755E1,1.945174E0,1.0642686E0,1.6629002E0],"tree_param":{"num_deleted":"0","num_feature":"30","num_nodes":"19","size_leaf_vector":"1"}},{"base_weights":[5.6530996E-3,-6.791544E-1,8.030704E-1,-8.749869E-1,5.0694477E-2,-6.740885E-1,9.868543E-1,4.1340634E-2,-9.717426E-1,-1.1936568E-2,-4.0518582E-2,1.0732943E0,2.7364582E-1,-5.270313E-1,-1.0815023E0,7.039145E-1,5.9601653E-2,-2.56993E-2,4.065706E-2,-4.9239703E-2,-3.0750718E-2,-5.805691E-1,-5.755638E-2,9.152574E-1,-1.7520225E-2,-1.2200084E-2,1.6173214E-2,-4.9551196E-2,2.1514516E-2,1.0130233E-2,5.0941616E-2],"categories":[],"categories_nodes":[],"categories_segments":[],"categories_sizes":[],"default_left":[0,0,0,0,0,0,0,0,0,0,0,0,0,0,0,0,0,0,0,0,0,0,0,0,0,0,0,0,0,0,0],"id":19,"left_children":[1,3,5,7,-1,9,11,-1,13,-1,-1,15,17,19,21,23,-1,-1,-1,-1,25,27,-1,29,-1,-1,-1,-1,-1,-1,-1],"loss_changes":[3.3126743E1,1.1709169E1,8.273104E0,5.7091484E0,0E0,2.5770545E-2,1.2678185E0,0E0,8.284664E-1,0E0,0E0,1.367302E-1,2.1517162E0,1.7012527E0,9.997749E-2,2.0708208E0,0E0,0E0,0E0,0E0,4.3314192E-1,2.3788567E0,0E0,2.969551E-1,0E0,0E0,0E0,0E0,0E0,0E0,0E0],"parents":[2147483647,0,0,1,1,2,2,3,3,5,5,6,6,8,8,11,11,12,12,13,13,14,14,15,15,20,20,21,21,23,23],"right_children":[2,4,6,8,-1,10,12,-1,14,-1,-1,16,18,20,22,24,-1,-1,-1,-1,26,28,-1,30,-1,-1,-1,-1,-1,-1,-1],"split_conditions":[5.593728E-1,7.3543435E-1,-4.872673E-1,3.2444283E-1,5.0694477E-2,-1.3487072E0,1.8384472E0,4.1340634E-2,-3.5795188E-1,-1.1936568E-2,-4.0518582E-2,1.0546969E-1,2.621468E-1,-6.9747263E-1,-9.455496E-1,1.2879517E0,5.9601653E-2,-2.56993E-2,4.065706E-2,-4.9239703E-2,-7.417052E-1,-6.348757E-1,-5.755638E-2,-1.4041866E-1,-1.7520225E-2,-1.2200084E-2,1.6173214E-2,-4.9551196E-2,2.1514516E-2,1.0130233E-2,5.0941616E-2],"split_indices":[16,20,19,14,0,19,18,0,2,0,0,20,1,2,1,4,0,0,0,0,20,20,0,1,0,0,0,0,0,0,0],"split_type":[0,0,0,0,0,0,0,0,0,0,0,0,0,0,0,0,0,0,0,0,0,0,0,0,0,0,0,0,0,0,0],"sum_hessian":[5.866432E1,3.1640415E1,2.7023905E1,2.8793133E1,2.847282E0,2.6950078E0,2.4328897E1,1.1430522E0,2.7650082E1,1.2985414E0,1.3964664E0,2.12487E1,3.0801976E0,6.621909E0,2.1028172E1,6.8542724E0,1.4394428E1,1.2713639E0,1.8088337E0,2.9325836E0,3.6893256E0,3.7056432E0,1.7322529E1,5.8196044E0,1.034668E0,2.4971151E0,1.1922106E0,2.6494632E0,1.05618E0,1.1135923E0,4.7060122E0],"tree_param":{"num_deleted":"0","num_feature":"30","num_nodes":"31","size_leaf_vector":"1"}},{"base_weights":[6.538544E-2,-6.4469904E-1,9.0065974E-1,-8.6330307E-1,5.2462447E-2,-3.0344105E-1,1.0545918E0,-9.856481E-1,5.5355012E-2,7.7608726E-3,-3.730994E-2,4.1145316E-1,1.1334988E0,-2.1410917E-1,-1.1409416E0,-2.183562E-2,4.2486053E-2,5.806321E-2,1.5571331E-2,-4.9618267E-2,5.092342E-2,-1.1811875E0,-9.453142E-3,-1.3228582E-2,-6.085981E-2],"categories":[],"categories_nodes":[],"categories_segments":[],"categories_sizes":[],"default_left":[0,0,0,0,0,0,0,0,0,0,0,0,0,0,0,0,0,0,0,0,0,0,0,0,0],"id":20,"left_children":[1,3,5,7,-1,9,11,13,-1,-1,-1,15,17,19,21,-1,-1,-1,-1,-1,-1,23,-1,-1,-1],"loss_changes":[3.6221916E1,1.3149045E1,5.515169E0,8.282833E0,0E0,9.187033E-1,8.061447E-1,3.1844826E0,0E0,0E0,0E0,1.9732664E0,1.35149E-1,6.791112E0,6.804428E-1,0E0,0E0,0E0,0E0,0E0,0E0,4.1874886E-1,0E0,0E0,0E0],"parents":[2147483647,0,0,1,1,2,2,3,3,5,5,6,6,7,7,11,11,12,12,13,13,14,14,21,21],"right_children":[2,4,6,8,-1,10,12,14,-1,-1,-1,16,18,20,22,-1,-1,-1,-1,-1,-1,24,-1,-1,-1],"split_conditions":[5.593728E-1,5.843965E-1,-4.872673E-1,4.143881E-1,5.2462447E-2,1.8384472E0,-2.4106003E-1,-4.9376017E-1,5.5355012E-2,7.7608726E-3,-3.730994E-2,4.947302E-2,5.196152E0,-6.9747263E-1,2.0297919E-1,-2.183562E-2,4.2486053E-2,5.806321E-2,1.5571331E-2,-4.9618267E-2,5.092342E-2,-1.3716929E0,-9.453142E-3,-1.3228582E-2,-6.085981E-2],"split_indices":[16,7,19,22,0,18,1,2,0,0,0,2,28,2,13,0,0,0,0,0,0,20,0,0,0],"split_type":[0,0,0,0,0,0,0,0,0,0,0,0,0,0,0,0,0,0,0,0,0,0,0,0,0],"sum_hessian":[5.9091625E1,3.2062645E1,2.702898E1,2.8832209E1,3.2304368E0,2.953622E0,2.4075357E1,2.7617193E1,1.2150158E0,1.7697477E0,1.1838744E0,3.310143E0,2.0765215E1,5.0259085E0,2.2591286E1,1.1289235E0,2.1812196E0,1.9687658E1,1.0775561E0,3.2001822E0,1.8257264E0,2.1443733E1,1.1475523E0,1.1260903E0,2.0317642E1],"tree_param":{"num_deleted":"0","num_feature":"30","num_nodes":"25","size_leaf_vector":"1"}},{"base_weights":[-1.8422706E-2,-5.420843E-1,9.4876254E-1,5.5341024E-2,-7.3534566E-1,3.3237517E-1,5.7973173E-2,-8.786103E-1,5.821569E-2,3.4952164E-2,-1.5654095E-1,8.002736E-4,-1.1458173E0,6.533907E-3,-1.9217208E-2,-5.5044364E-2,5.5238254E-2,-1.3868026E-2,-5.8653653E-2],"categories":[],"categories_nodes":[],"categories_segments":[],"categories_sizes":[],"default_left":[0,0,0,0,0,0,0,0,0,0,0,0,0,0,0,0,0,0,0],"id":21,"left_children":[1,3,5,-1,7,9,-1,11,-1,-1,13,15,17,-1,-1,-1,-1,-1,-1],"loss_changes":[2.9453453E1,1.2829216E1,2.2683754E0,0E0,1.0371431E1,1.2939148E0,0E0,7.640482E0,0E0,0E0,2.8895393E-1,1.1646109E1,2.648697E-1,0E0,0E0,0E0,0E0,0E0,0E0],"parents":[2147483647,0,0,1,1,2,2,4,4,5,5,7,7,10,10,11,11,12,12],"right_children":[2,4,6,-1,8,10,-1,12,-1,-1,14,16,18,-1,-1,-1,-1,-1,-1],"split_conditions":[-1.6655317E-1,3.2444283E-1,9.317084E-2,5.5341024E-2,4.143881E-1,-8.633527E-2,5.7973173E-2,-4.9376017E-1,5.821569E-2,3.4952164E-2,-3.669117E-2,-6.9747263E-1,-7.7257586E-1,6.533907E-3,-1.9217208E-2,-5.5044364E-2,5.5238254E-2,-1.3868026E-2,-5.8653653E-2],"split_indices":[0,14,0,0,22,2,0,2,0,0,0,2,0,0,0,0,0,0,0],"split_type":[0,0,0,0,0,0,0,0,0,0,0,0,0,0,0,0,0,0,0],"sum_hessian":[5.6138035E1,3.6704628E1,1.9433405E1,3.354762E0,3.3349865E1,5.6072755E0,1.3826131E1,3.1510931E1,1.8389359E0,2.9586334E0,2.6486418E0,7.5756283E0,2.3935303E1,1.3601241E0,1.2885177E0,3.7931201E0,3.782508E0,1.0684142E0,2.2866888E1],"tree_param":{"num_deleted":"0","num_feature":"30","num_nodes":"19","size_leaf_vector":"1"}},{"base_weights":[-3.1649012E-2,-5.4776376E-1,1.0256749E0,5.675304E-2,-7.640553E-1,3.296388E-1,5.6956824E-2,-9.0886295E-1,3.3215456E-2,-2.5383506E-2,4.188784E-2,-1.0126352E0,4.3765303E-2,-1.0556524E0,-5.429077E-3,-5.5188924E-2,-1.20581845E-2],"categories":[],"categories_nodes":[],"categories_segments":[],"categories_sizes":[],"default_left":[0,0,0,0,0,0,0,0,0,0,0,0,0,0,0,0,0],"id":22,"left_children":[1,3,5,-1,7,9,-1,11,-1,-1,-1,13,-1,15,-1,-1,-1],"loss_changes":[3.0785532E1,1.4651108E1,1.0867214E0,0E0,7.6681995E0,2.1281261E0,0E0,6.706068E0,0E0,0E0,0E0,1.0586338E0,0E0,8.5816E-1,0E0,0E0,0E0],"parents":[2147483647,0,0,1,1,2,2,4,4,5,5,7,7,11,11,13,13],"right_children":[2,4,6,-1,8,10,-1,12,-1,-1,-1,14,-1,16,-1,-1,-1],"split_conditions":[-7.99785E-2,3.2444283E-1,5.593728E-1,5.675304E-2,3.6278817E-1,9.317084E-2,5.6956824E-2,4.143881E-1,3.3215456E-2,-2.5383506E-2,4.188784E-2,2.077896E0,4.3765303E-2,-2.098405E-1,-5.429077E-3,-5.5188924E-2,-1.20581845E-2],"split_indices":[0,14,16,0,1,0,0,22,0,0,0,27,0,0,0,0,0],"split_type":[0,0,0,0,0,0,0,0,0,0,0,0,0,0,0,0,0],"sum_hessian":[5.438515E1,3.6869747E1,1.7515408E1,3.7153316E0,3.3154415E1,3.0023866E0,1.451302E1,3.0432837E1,2.7215784E0,1.1342232E0,1.8681633E0,2.9168734E1,1.2641027E0,2.768378E1,1.484952E0,2.5803915E1,1.8798658E0],"tree_param":{"num_deleted":"0","num_feature":"30","num_nodes":"17","size_leaf_vector":"1"}},{"base_weights":[8.197392E-2,-6.262748E-1,8.2624805E-1,-8.2666534E-1,4.7297176E-2,-1.8603446E-1,1.0254108E0,-1.7048565E-1,-1.0302995E0,-4.1143555E-2,1.8091749E-1,5.5772215E-1,5.7062358E-2,-4.360811E-2,3.0972692E-1,-5.009446E-1,-1.0990345E0,4.478739E-2,-2.6622323E-2,-1.7236592E-2,4.949268E-2,4.8907816E-2,-3.338973E-1,-4.169717E-2,6.460381E-3,-5.7186134E-2,-1.6415693E-2,8.278204E-3,-3.35312E-2],"categories":[],"categories_nodes":[],"categories_segments":[],"categories_sizes":[],"default_left":[0,0,0,0,0,0,0,0,0,0,0,0,0,0,0,0,0,0,0,0,0,0,0,0,0,0,0,0,0],"id":23,"left_children":[1,3,5,7,-1,9,11,13,15,-1,17,19,-1,-1,21,23,25,-1,-1,-1,-1,-1,27,-1,-1,-1,-1,-1,-1],"loss_changes":[2.967889E1,9.89199E0,5.7159805E0,3.3225594E0,0E0,1.39956E0,6.124439E-1,2.7631428E0,1.692009E-1,0E0,2.6264207E0,2.8886538E0,0E0,0E0,2.5338166E0,9.7039306E-1,1.9866562E-1,0E0,0E0,0E0,0E0,0E0,6.7599547E-1,0E0,0E0,0E0,0E0,0E0,0E0],"parents":[2147483647,0,0,1,1,2,2,3,3,5,5,6,6,7,7,8,8,10,10,11,11,14,14,15,15,16,16,22,22],"right_children":[2,4,6,8,-1,10,12,14,16,-1,18,20,-1,-1,22,24,26,-1,-1,-1,-1,-1,28,-1,-1,-1,-1,-1,-1],"split_conditions":[5.593728E-1,7.3543435E-1,-4.6956453E-1,-3.5795188E-1,4.7297176E-2,-6.9747263E-1,-2.098405E-1,-6.9747263E-1,-9.455496E-1,-4.1143555E-2,-5.6166434E-1,1.6150543E-1,5.7062358E-2,-4.360811E-2,-4.9376017E-1,-9.091202E-1,-3.669117E-2,4.478739E-2,-2.6622323E-2,-1.7236592E-2,4.949268E-2,4.8907816E-2,5.0259584E-1,-4.169717E-2,6.460381E-3,-5.7186134E-2,-1.6415693E-2,8.278204E-3,-3.35312E-2],"split_indices":[16,20,0,2,0,2,0,2,1,0,2,1,0,0,2,20,0,0,0,0,0,0,27,0,0,0,0,0,0],"split_type":[0,0,0,0,0,0,0,0,0,0,0,0,0,0,0,0,0,0,0,0,0,0,0,0,0,0,0,0,0],"sum_hessian":[5.4321007E1,2.7915375E1,2.6405632E1,2.5180183E1,2.7351909E0,4.351947E0,2.2053686E1,6.39867E0,1.8781513E1,1.1367297E0,3.2152174E0,5.532202E0,1.6521484E1,2.2682097E0,4.1304603E0,3.1109498E0,1.5670564E1,1.4782557E0,1.7369615E0,1.8567849E0,3.675417E0,1.7712175E0,2.359243E0,1.8237855E0,1.2871642E0,1.4354304E1,1.3162591E0,1.1547437E0,1.2044992E0],"tree_param":{"num_deleted":"0","num_feature":"30","num_nodes":"29","size_leaf_vector":"1"}},{"base_weights":[1.1862397E-2,-6.636742E-1,7.8723305E-1,-8.5175997E-1,4.8551198E-2,-1.4211282E-1,1.0342604E0,-9.638953E-1,4.68953E-2,-7.383929E-1,3.9661E-2,5.5934574E-2,4.73434E-1,-1.3169129E-1,-1.1178368E0,-4.9945167E-3,-4.6422657E-2,-1.0808959E-2,4.1214414E-2,-4.460714E-2,4.5910493E-2,-1.1031386E-2,-5.7660013E-2],"categories":[],"categories_nodes":[],"categories_segments":[],"categories_sizes":[],"default_left":[0,0,0,0,0,0,0,0,0,0,0,0,0,0,0,0,0,0,0,0,0,0,0],"id":24,"left_children":[1,3,5,7,-1,9,11,13,-1,15,-1,-1,17,19,21,-1,-1,-1,-1,-1,-1,-1,-1],"loss_changes":[2.9109112E1,9.961339E0,6.0855904E0,6.3577824E0,0E0,4.1056075E0,4.4376373E-1,3.1921883E0,0E0,4.37824E-1,0E0,0E0,1.2484854E0,4.972947E0,4.3927193E-1,0E0,0E0,0E0,0E0,0E0,0E0,0E0,0E0],"parents":[2147483647,0,0,1,1,2,2,3,3,5,5,6,6,7,7,9,9,12,12,13,13,14,14],"right_children":[2,4,6,8,-1,10,12,14,-1,16,-1,-1,18,20,22,-1,-1,-1,-1,-1,-1,-1,-1],"split_conditions":[5.593728E-1,5.843965E-1,-3.4170142E-1,4.143881E-1,4.8551198E-2,-1.5423943E-1,1.8384472E0,-4.9376017E-1,4.68953E-2,-4.2585602E-1,3.9661E-2,5.5934574E-2,2.621468E-1,-6.9747263E-1,-1.5111502E0,-4.9945167E-3,-4.6422657E-2,-1.0808959E-2,4.1214414E-2,-4.460714E-2,4.5910493E-2,-1.1031386E-2,-5.7660013E-2],"split_indices":[16,7,1,22,0,2,18,2,0,2,0,0,1,2,20,0,0,0,0,0,0,0,0],"split_type":[0,0,0,0,0,0,0,0,0,0,0,0,0,0,0,0,0,0,0,0,0,0,0],"sum_hessian":[5.357641E1,2.8708431E1,2.4867977E1,2.6175652E1,2.5327797E0,5.311226E0,1.9556751E1,2.506647E1,1.1091826E0,3.3720686E0,1.9391572E0,1.6133211E1,3.4235387E0,4.202629E0,2.086384E1,1.1234472E0,2.2486215E0,1.2838827E0,2.139656E0,2.5244272E0,1.6782019E0,1.0656613E0,1.979818E1],"tree_param":{"num_deleted":"0","num_feature":"30","num_nodes":"23","size_leaf_vector":"1"}},{"base_weights":[2.2245165E-2,-6.6042334E-1,7.9524624E-1,-8.5352033E-1,4.7358762E-2,9.617293E-2,9.845415E-1,-9.6258837E-1,4.2344403E-2,-6.692209E-1,4.6381176E-2,5.8592635E-1,5.5475336E-2,-1.3213485E-1,-1.1202378E0,-4.8638047E-3,-4.305689E-2,1.3936335E-1,4.5721527E-2,-4.4020846E-2,4.480731E-2,-5.8262955E-2,-6.6092215E-3,4.5363702E-2,-2.5757238E-2],"categories":[],"categories_nodes":[],"categories_segments":[],"categories_sizes":[],"default_left":[0,0,0,0,0,0,0,0,0,0,0,0,0,0,0,0,0,0,0,0,0,0,0,0,0],"id":25,"left_children":[1,3,5,7,-1,9,11,13,-1,15,-1,17,-1,19,21,-1,-1,23,-1,-1,-1,-1,-1,-1,-1],"loss_changes":[2.8455824E1,9.702931E0,3.250083E0,5.656885E0,0E0,4.753522E0,3.3529663E-1,3.1250935E0,0E0,3.5115278E-1,0E0,8.760421E-1,0E0,4.730489E0,7.747059E-1,0E0,0E0,2.5175312E0,0E0,0E0,0E0,0E0,0E0,0E0,0E0],"parents":[2147483647,0,0,1,1,2,2,3,3,5,5,6,6,7,7,9,9,11,11,13,13,14,14,17,17],"right_children":[2,4,6,8,-1,10,12,14,-1,16,-1,18,-1,20,22,-1,-1,24,-1,-1,-1,-1,-1,-1,-1],"split_conditions":[5.593728E-1,5.843965E-1,-3.4170142E-1,4.143881E-1,4.7358762E-2,5.843965E-1,1.6150543E-1,-5.6166434E-1,4.2344403E-2,-4.2585602E-1,4.6381176E-2,-2.2214358E-1,5.5475336E-2,-6.9747263E-1,9.6469626E-2,-4.8638047E-3,-4.305689E-2,-3.397221E-1,4.5721527E-2,-4.4020846E-2,4.480731E-2,-5.8262955E-2,-6.6092215E-3,4.5363702E-2,-2.5757238E-2],"split_indices":[16,7,1,22,0,7,1,2,0,2,0,2,0,2,13,0,0,20,0,0,0,0,0,0,0],"split_type":[0,0,0,0,0,0,0,0,0,0,0,0,0,0,0,0,0,0,0,0,0,0,0,0,0],"sum_hessian":[5.192863E1,2.7652887E1,2.4275745E1,2.510631E1,2.5465775E0,5.494061E0,1.8781685E1,2.4000755E1,1.1055549E0,2.9622607E0,2.5318E0,5.84046E0,1.2941225E1,4.1225367E0,1.9878218E1,1.1228483E0,1.8394126E0,3.0790658E0,2.7613938E0,2.4693694E0,1.6531674E0,1.8840393E1,1.037824E0,1.2390919E0,1.8399739E0],"tree_param":{"num_deleted":"0","num_feature":"30","num_nodes":"25","size_leaf_vector":"1"}},{"base_weights":[1.7584108E-2,-5.93912E-1,7.153592E-1,-8.4002686E-1,4.8656043E-2,1.5770686E-1,5.464753E-2,-2.932415E-1,-9.309693E-1,7.014804E-1,-5.190299E-1,-6.323588E-1,1.6106889E-2,-3.2819748E-1,-5.0900467E-2,5.2979034E-3,4.7720086E-2,-7.7762146E-4,-6.9116384E-1,-9.29909E-3,-3.738924E-2,-3.6653306E-2,1.0393919E-2,-4.4758275E-2,-6.000447E-3],"categories":[],"categories_nodes":[],"categories_segments":[],"categories_sizes":[],"default_left":[0,0,0,0,0,0,0,0,0,0,0,0,0,0,0,0,0,0,0,0,0,0,0,0,0],"id":26,"left_children":[1,3,5,7,-1,9,-1,11,13,15,17,19,-1,21,-1,-1,-1,-1,23,-1,-1,-1,-1,-1,-1],"loss_changes":[2.1487915E1,1.1174613E1,4.7778435E0,9.0781593E-1,0E0,4.2869296E0,0E0,1.2150302E0,7.0996475E-1,8.5320187E-1,4.506712E-1,3.9294243E-2,0E0,1.0176811E0,0E0,0E0,0E0,0E0,3.521868E-1,0E0,0E0,0E0,0E0,0E0,0E0],"parents":[2147483647,0,0,1,1,2,2,3,3,5,5,7,7,8,8,9,9,10,10,11,11,13,13,18,18],"right_children":[2,4,6,8,-1,10,-1,12,14,16,18,20,-1,22,-1,-1,-1,-1,24,-1,-1,-1,-1,-1,-1],"split_conditions":[5.593728E-1,7.3543435E-1,-2.098405E-1,-9.455496E-1,4.8656043E-2,-4.2585602E-1,5.464753E-2,-9.091202E-1,-4.9376017E-1,-5.561392E-1,-6.536304E-1,-3.5795188E-1,1.6106889E-2,-7.292885E-1,-5.0900467E-2,5.2979034E-3,4.7720086E-2,-7.7762146E-4,2.4243209E-1,-9.29909E-3,-3.738924E-2,-3.6653306E-2,1.0393919E-2,-4.4758275E-2,-6.000447E-3],"split_indices":[16,20,0,1,0,2,0,20,2,0,20,2,0,0,0,0,0,0,19,0,0,0,0,0,0],"split_type":[0,0,0,0,0,0,0,0,0,0,0,0,0,0,0,0,0,0,0,0,0,0,0,0,0],"sum_hessian":[4.8364204E1,2.5854996E1,2.250921E1,2.2746428E1,3.1085672E0,9.660137E0,1.2849073E1,3.8461554E0,1.8900272E1,5.3359866E0,4.3241506E0,2.4618893E0,1.3842661E0,2.9867828E0,1.5913489E1,2.013645E0,3.3223414E0,1.37952E0,2.9446306E0,1.0423117E0,1.4195776E0,1.4922793E0,1.4945035E0,1.7516844E0,1.1929463E0],"tree_param":{"num_deleted":"0","num_feature":"30","num_nodes":"25","size_leaf_vector":"1"}},{"base_weights":[1.6287309E-3,-4.8384297E-1,8.679051E-1,3.405177E-1,-8.3982575E-1,2.5118792E-1,5.422291E-2,-5.129651E-2,5.696984E-2,-1.0117576E0,5.2801836E-2,-1.6107656E-1,3.803296E-2,-8.942248E-3,-5.2222725E-2,-3.68759E-2,3.571829E-2],"categories":[],"categories_nodes":[],"categories_segments":[],"categories_sizes":[],"default_left":[0,0,0,0,0,0,0,0,0,0,0,0,0,0,0,0,0],"id":27,"left_children":[1,3,5,7,9,11,-1,-1,-1,13,-1,15,-1,-1,-1,-1,-1],"loss_changes":[2.118414E1,9.759821E0,2.1435757E0,1.2574214E1,8.511896E0,1.3833302E0,0E0,0E0,0E0,3.972969E-1,0E0,2.6176698E0,0E0,0E0,0E0,0E0,0E0],"parents":[2147483647,0,0,1,1,2,2,3,3,4,4,5,5,9,9,11,11],"right_children":[2,4,6,8,10,12,-1,-1,-1,14,-1,16,-1,-1,-1,-1,-1],"split_conditions":[-1.6655317E-1,-4.2585602E-1,9.317084E-2,-6.9747263E-1,4.143881E-1,5.640709E-1,5.422291E-2,-5.129651E-2,5.696984E-2,-1.3716929E0,5.2801836E-2,5.843965E-1,3.803296E-2,-8.942248E-3,-5.2222725E-2,-3.68759E-2,3.571829E-2],"split_indices":[0,2,0,2,22,1,0,0,0,20,0,7,0,0,0,0,0],"split_type":[0,0,0,0,0,0,0,0,0,0,0,0,0,0,0,0,0],"sum_hessian":[4.8373627E1,3.1283464E1,1.7090162E1,9.447962E0,2.1835503E1,5.0027823E0,1.2087379E1,3.380888E0,6.067074E0,2.0447495E1,1.3880074E0,3.143166E0,1.8596163E0,1.0167532E0,1.9430742E1,1.9902318E0,1.1529343E0],"tree_param":{"num_deleted":"0","num_feature":"30","num_nodes":"17","size_leaf_vector":"1"}},{"base_weights":[3.0127168E-2,-5.84992E-1,7.07923E-1,-7.745944E-1,5.170958E-2,1.5412244E-1,5.3631403E-2,-8.8209605E-1,3.4502745E-2,6.623075E-1,-4.9615654E-1,-9.352306E-1,5.348842E-3,-7.7143416E-4,4.689573E-2,-8.807856E-2,-4.3157216E-2,-3.1843093E-1,-1.0334356E0,-2.0359596E-2,1.5185788E-2,-4.2221945E-2,3.5238028E-2,-1.7822787E-2,-5.5363238E-2],"categories":[],"categories_nodes":[],"categories_segments":[],"categories_sizes":[],"default_left":[0,0,0,0,0,0,0,0,0,0,0,0,0,0,0,0,0,0,0,0,0,0,0,0,0],"id":28,"left_children":[1,3,5,7,-1,9,-1,11,-1,13,15,17,-1,-1,-1,19,-1,21,23,-1,-1,-1,-1,-1,-1],"loss_changes":[1.9862127E1,8.476509E0,4.408371E0,4.2225924E0,0E0,3.6858652E0,0E0,1.24687E0,0E0,1.1596708E0,6.770114E-1,9.315605E-1,0E0,0E0,0E0,5.6057686E-1,0E0,2.9114873E0,4.803772E-1,0E0,0E0,0E0,0E0,0E0,0E0],"parents":[2147483647,0,0,1,1,2,2,3,3,5,5,7,7,9,9,10,10,11,11,15,15,17,17,18,18],"right_children":[2,4,6,8,-1,10,-1,12,-1,14,16,18,-1,-1,-1,20,-1,22,24,-1,-1,-1,-1,-1,-1],"split_conditions":[5.593728E-1,4.143881E-1,-2.098405E-1,5.843965E-1,5.170958E-2,-5.4446552E-2,5.3631403E-2,3.1082013E-1,3.4502745E-2,-5.561392E-1,1.8384472E0,-5.4446552E-2,5.348842E-3,-7.7143416E-4,4.689573E-2,-2.5235856E-1,-4.3157216E-2,-3.524223E-1,-6.860012E-1,-2.0359596E-2,1.5185788E-2,-4.2221945E-2,3.5238028E-2,-1.7822787E-2,-5.5363238E-2],"split_indices":[16,22,0,7,0,25,0,13,0,0,18,25,0,0,0,19,0,7,0,0,0,0,0,0,0],"split_type":[0,0,0,0,0,0,0,0,0,0,0,0,0,0,0,0,0,0,0,0,0,0,0,0,0],"sum_hessian":[4.5646255E1,2.4001305E1,2.164495E1,2.195235E1,2.0489526E0,9.159281E0,1.2485671E1,2.0821823E1,1.130528E0,5.1309834E0,4.028298E0,1.9811932E1,1.0098914E0,1.7562547E0,3.3747284E0,2.4945009E0,1.533797E0,3.3038468E0,1.6508085E1,1.3531065E0,1.1413944E0,2.297458E0,1.0063889E0,2.196381E0,1.4311704E1],"tree_param":{"num_deleted":"0","num_feature":"30","num_nodes":"25","size_leaf_vector":"1"}},{"base_weights":[3.0775452E-2,-4.9285173E-1,6.965352E-1,4.7594026E-2,-6.549567E-1,3.1408235E-1,5.0772965E-2,-7.611154E-1,2.3255996E-2,-2.5283572E-1,4.4299845E-2,-8.130923E-1,8.4202895E-3,8.750799E-2,-4.1041795E-2,1.1601875E-4,-8.8428134E-1,2.7664786E-2,-2.3249935E-1,-1.4182137E-2,-4.842485E-2,-4.498359E-5,-1.8770551E-2],"categories":[],"categories_nodes":[],"categories_segments":[],"categories_sizes":[],"default_left":[0,0,0,0,0,0,0,0,0,0,0,0,0,0,0,0,0,0,0,0,0,0,0],"id":29,"left_children":[1,3,5,-1,7,9,-1,11,-1,13,-1,15,-1,17,-1,-1,19,-1,21,-1,-1,-1,-1],"loss_changes":[1.686573E1,6.9737544E0,2.2766695E0,0E0,3.323327E0,3.8307686E0,0E0,1.2572966E0,0E0,1.3021743E0,0E0,1.2868357E0,0E0,8.5654444E-1,0E0,0E0,7.5508976E-1,0E0,1.18777364E-1,0E0,0E0,0E0,0E0],"parents":[2147483647,0,0,1,1,2,2,4,4,5,5,7,7,9,9,11,11,13,13,16,16,18,18],"right_children":[2,4,6,-1,8,10,-1,12,-1,14,-1,16,-1,18,-1,-1,20,-1,22,-1,-1,-1,-1],"split_conditions":[-5.8608986E-2,3.2444283E-1,5.8312947E-1,4.7594026E-2,2.621468E-1,4.6342954E-1,5.0772965E-2,2.077896E0,2.3255996E-2,1.8384472E0,4.4299845E-2,-2.241492E0,8.4202895E-3,4.125437E-1,-4.1041795E-2,1.1601875E-4,-5.4446552E-2,2.7664786E-2,1.2518373E-1,-1.4182137E-2,-4.842485E-2,-4.498359E-5,-1.8770551E-2],"split_indices":[20,14,20,0,1,1,0,27,0,18,0,19,0,19,0,0,25,0,20,0,0,0,0],"split_type":[0,0,0,0,0,0,0,0,0,0,0,0,0,0,0,0,0,0,0,0,0,0,0],"sum_hessian":[4.6395218E1,2.6115114E1,2.0280104E1,2.143101E0,2.3972013E1,1.0124114E1,1.015599E1,2.2189425E1,1.7825905E0,5.364446E0,4.7596674E0,2.1132967E1,1.0564563E0,3.8834395E0,1.4810069E0,1.774533E0,1.9358435E1,1.2846106E0,2.5988288E0,2.9176168E0,1.6440817E1,1.3756975E0,1.2231313E0],"tree_param":{"num_deleted":"0","num_feature":"30","num_nodes":"23","size_leaf_vector":"1"}},{"base_weights":[3.7999365E-2,-4.5619583E-1,8.764276E-1,5.132247E-2,-6.764796E-1,3.2375592E-1,5.3080212E-2,3.0277332E-2,-9.15305E-1,-5.1719584E-2,3.693753E-2,-4.9874227E-2,5.097657E-2,-1.02545675E-2,-9.721272E-1,1.44395E-2,-1.8465681E-2,-5.3452432E-2,-3.681702E-1,8.815656E-3,-3.9806686E-2],"categories":[],"categories_nodes":[],"categories_segments":[],"categories_sizes":[],"default_left":[0,0,0,0,0,0,0,0,0,0,0,0,0,0,0,0,0,0,0,0,0],"id":30,"left_children":[1,3,5,-1,7,9,-1,11,13,15,-1,-1,-1,-1,17,-1,-1,-1,19,-1,-1],"loss_changes":[1.9260153E1,1.0262426E1,1.4188776E0,0E0,4.434677E0,9.359013E-1,0E0,8.7056875E0,5.894432E-1,5.3480864E-1,0E0,0E0,0E0,0E0,6.501827E-1,0E0,0E0,0E0,1.0703704E0,0E0,0E0],"parents":[2147483647,0,0,1,1,2,2,4,4,5,5,7,7,8,8,9,9,14,14,18,18],"right_children":[2,4,6,-1,8,10,-1,12,14,16,-1,-1,-1,-1,18,-1,-1,-1,20,-1,-1],"split_conditions":[-1.6655317E-1,3.2444283E-1,9.317084E-2,5.132247E-2,-4.2585602E-1,5.640709E-1,5.3080212E-2,-6.9747263E-1,-7.292885E-1,6.0039634E-1,3.693753E-2,-4.9874227E-2,5.097657E-2,-1.02545675E-2,4.4007763E-2,1.44395E-2,-1.8465681E-2,-5.3452432E-2,4.125437E-1,8.815656E-3,-3.9806686E-2],"split_indices":[0,14,0,0,2,1,0,2,0,19,0,0,0,0,20,0,0,0,19,0,0],"split_type":[0,0,0,0,0,0,0,0,0,0,0,0,0,0,0,0,0,0,0,0,0],"sum_hessian":[4.4518177E1,2.8295712E1,1.6222464E1,3.1868148E0,2.5108896E1,4.7610803E0,1.1461385E1,6.562297E0,1.8546598E1,2.9591222E0,1.8019578E0,3.214426E0,3.347871E0,1.7153976E0,1.6831202E1,1.4718103E0,1.487312E0,1.3840103E1,2.9910984E0,1.575131E0,1.4159672E0],"tree_param":{"num_deleted":"0","num_feature":"30","num_nodes":"21","size_leaf_vector":"1"}},{"base_weights":[-2.2869522E-3,-5.670191E-1,6.510539E-1,-7.589165E-1,4.3267537E-2,-3.9305934E-1,9.423769E-1,-8.970661E-1,4.642119E-2,-5.92785E-1,6.653316E-3,5.1734943E-2,3.013686E-1,-2.5502843E-1,-1.0088009E0,-4.51895E-4,-4.1699022E-2,-1.5988506E-2,3.4370713E-2,-4.1208383E-2,3.6391493E-2,-5.4094244E-2,-4.4057155E-1,-6.742177E-3,-2.689348E-2],"categories":[],"categories_nodes":[],"categories_segments":[],"categories_sizes":[],"default_left":[0,0,0,0,0,0,0,0,0,0,0,0,0,0,0,0,0,0,0,0,0,0,0,0,0],"id":31,"left_children":[1,3,5,7,-1,9,11,13,-1,15,-1,-1,17,19,21,-1,-1,-1,-1,-1,-1,-1,23,-1,-1],"loss_changes":[1.6627277E1,7.3001313E0,6.726124E0,5.9254484E0,0E0,6.320114E-1,6.7238617E-1,1.2278423E0,0E0,5.554801E-1,0E0,0E0,1.0602031E0,3.0650978E0,2.4158478E-1,0E0,0E0,0E0,0E0,0E0,0E0,0E0,3.628266E-2,0E0,0E0],"parents":[2147483647,0,0,1,1,2,2,3,3,5,5,6,6,7,7,9,9,12,12,13,13,14,14,22,22],"right_children":[2,4,6,8,-1,10,12,14,-1,16,-1,-1,18,20,22,-1,-1,-1,-1,-1,-1,-1,24,-1,-1],"split_conditions":[5.593728E-1,7.3543435E-1,-4.6956453E-1,4.143881E-1,4.3267537E-2,-3.4170142E-1,1.8384472E0,-5.6166434E-1,4.642119E-2,-1.3487072E0,6.653316E-3,5.1734943E-2,2.621468E-1,-6.9747263E-1,-1.8431125E-2,-4.51895E-4,-4.1699022E-2,-1.5988506E-2,3.4370713E-2,-4.1208383E-2,3.6391493E-2,-5.4094244E-2,-1.6281141E-1,-6.742177E-3,-2.689348E-2],"split_indices":[16,20,0,22,0,1,18,2,0,19,0,0,1,2,2,0,0,0,0,0,0,0,20,0,0],"split_type":[0,0,0,0,0,0,0,0,0,0,0,0,0,0,0,0,0,0,0,0,0,0,0,0,0],"sum_hessian":[4.3064404E1,2.316943E1,1.9894976E1,2.0846722E1,2.3227086E0,4.263871E0,1.5631104E1,1.970199E1,1.14473E0,2.9987857E0,1.2650853E0,1.3126389E1,2.5047162E0,3.4070756E0,1.6294916E1,1.1801145E0,1.8186711E0,1.0258403E0,1.4788759E0,2.2599027E0,1.1471729E0,1.3637006E1,2.6579099E0,1.2176656E0,1.4402442E0],"tree_param":{"num_deleted":"0","num_feature":"30","num_nodes":"25","size_leaf_vector":"1"}},{"base_weights":[2.8726805E-2,-3.2262263E-1,5.053122E-2,5.1570732E-2,-5.185548E-1,-6.480262E-1,5.0331462E-2,-7.931324E-1,3.3905882E-2,-8.4449685E-1,-2.1328814E-3,-5.0878823E-2,-2.409719E-2],"categories":[],"categories_nodes":[],"categories_segments":[],"categories_sizes":[],"default_left":[0,0,0,0,0,0,0,0,0,0,0,0,0],"id":32,"left_children":[1,3,-1,-1,5,7,-1,9,-1,11,-1,-1,-1],"loss_changes":[1.5303316E1,9.218351E0,0E0,0E0,6.4300056E0,5.8446856E0,0E0,9.399576E-1,0E0,9.9324036E-1,0E0,0E0,0E0],"parents":[2147483647,0,0,1,1,4,4,5,5,7,7,9,9],"right_children":[2,4,-1,-1,6,8,-1,10,-1,12,-1,-1,-1],"split_conditions":[4.98835E-2,3.2444283E-1,5.053122E-2,5.1570732E-2,4.143881E-1,4.6342954E-1,5.0331462E-2,2.077896E0,3.3905882E-2,-3.4170142E-1,-2.1328814E-3,-5.0878823E-2,-2.409719E-2],"split_indices":[0,14,0,0,22,1,0,27,0,1,0,0,0],"split_type":[0,0,0,0,0,0,0,0,0,0,0,0,0],"sum_hessian":[4.241373E1,3.1730965E1,1.0682766E1,3.4720905E0,2.8258875E1,2.6577824E1,1.68105E0,2.4318794E1,2.2590292E0,2.2643719E1,1.6750762E0,1.41039295E1,8.539789E0],"tree_param":{"num_deleted":"0","num_feature":"30","num_nodes":"13","size_leaf_vector":"1"}},{"base_weights":[3.3939216E-2,-5.051922E-1,6.465282E-1,-6.7678416E-1,4.2068392E-2,-2.2347817E-2,7.9225105E-1,-7.965261E-1,4.083062E-2,4.9119037E-1,5.2910335E-2,-4.0404346E-2,-9.6976984E-1,3.6305126E-2,4.5608807E-2,-3.939557E-2,4.165339E-2,-6.786345E-3,-1.0172586E0,-4.3951166E-1,3.648662E-2,-5.292479E-2,-1.2210133E-2,2.1184708E-3,-3.0689871E-2],"categories":[],"categories_nodes":[],"categories_segments":[],"categories_sizes":[],"default_left":[0,0,0,0,0,0,0,0,0,0,0,0,0,0,0,0,0,0,0,0,0,0,0,0,0],"id":33,"left_children":[1,3,5,7,-1,-1,9,11,-1,13,-1,15,17,19,-1,-1,-1,-1,21,23,-1,-1,-1,-1,-1],"loss_changes":[1.3900699E1,5.750291E0,3.4897308E0,4.3059654E0,0E0,0E0,8.9942265E-1,2.5061483E0,0E0,1.9163532E0,0E0,3.7026927E0,4.863596E-1,2.2787614E0,0E0,0E0,0E0,0E0,2.1210766E-1,3.7400347E-1,0E0,0E0,0E0,0E0,0E0],"parents":[2147483647,0,0,1,1,2,2,3,3,6,6,7,7,9,9,11,11,12,12,13,13,18,18,19,19],"right_children":[2,4,6,8,-1,-1,10,12,-1,14,-1,16,18,20,-1,-1,-1,-1,22,24,-1,-1,-1,-1,-1],"split_conditions":[5.593728E-1,5.843965E-1,-5.429841E-1,4.143881E-1,4.2068392E-2,-2.2347817E-2,5.0259584E-1,-5.6166434E-1,4.083062E-2,2.537193E-1,5.2910335E-2,-6.9747263E-1,-2.0593119E0,2.621468E-1,4.5608807E-2,-3.939557E-2,4.165339E-2,-6.786345E-3,3.9901757E-1,8.762477E-2,3.648662E-2,-5.292479E-2,-1.2210133E-2,2.1184708E-3,-3.0689871E-2],"split_indices":[16,7,1,22,0,0,27,2,0,20,0,2,19,1,0,0,0,0,20,19,0,0,0,0,0],"split_type":[0,0,0,0,0,0,0,0,0,0,0,0,0,0,0,0,0,0,0,0,0,0,0,0,0],"sum_hessian":[4.0100437E1,2.1422285E1,1.8678154E1,1.944217E1,1.9801147E0,1.9533461E0,1.6724808E1,1.843099E1,1.0111791E0,9.179988E0,7.54482E0,3.6656225E0,1.4765368E1,4.934443E0,4.2455454E0,2.028021E0,1.6376015E0,1.0032592E0,1.376211E1,3.1435633E0,1.7908796E0,1.2714638E1,1.0474718E0,1.0360087E0,2.1075544E0],"tree_param":{"num_deleted":"0","num_feature":"30","num_nodes":"25","size_leaf_vector":"1"}},{"base_weights":[3.305298E-2,-3.8697645E-1,8.954267E-1,4.9645744E-2,-6.014846E-1,2.787576E-1,5.1189214E-2,-7.4022025E-1,4.7056105E-2,-1.2676075E-2,3.348845E-2,-1.0577627E-1,-9.464476E-1,-4.7920007E-2,4.544015E-2,-8.62605E-3,-9.8625916E-1,-5.189042E-2,-1.704793E-2],"categories":[],"categories_nodes":[],"categories_segments":[],"categories_sizes":[],"default_left":[0,0,0,0,0,0,0,0,0,0,0,0,0,0,0,0,0,0,0],"id":34,"left_children":[1,3,5,-1,7,9,-1,11,-1,-1,-1,13,15,-1,-1,-1,17,-1,-1],"loss_changes":[1.4769527E1,8.729654E0,7.708063E-1,0E0,5.9188004E0,9.342638E-1,0E0,2.9023037E0,0E0,0E0,0E0,6.7145114E0,3.5956192E-1,0E0,0E0,0E0,1.8301296E-1,0E0,0E0],"parents":[2147483647,0,0,1,1,2,2,4,4,5,5,7,7,11,11,12,12,16,16],"right_children":[2,4,6,-1,8,10,-1,12,-1,-1,-1,14,16,-1,-1,-1,18,-1,-1],"split_conditions":[-1.6655317E-1,3.2444283E-1,6.5961652E-3,4.9645744E-2,4.143881E-1,5.593728E-1,5.1189214E-2,-5.4446552E-2,4.7056105E-2,-1.2676075E-2,3.348845E-2,-3.524223E-1,-1.4293697E0,-4.7920007E-2,4.544015E-2,-8.62605E-3,6.0864065E-2,-5.189042E-2,-1.704793E-2],"split_indices":[0,14,0,0,22,16,0,25,0,0,0,7,20,0,0,0,1,0,0],"split_type":[0,0,0,0,0,0,0,0,0,0,0,0,0,0,0,0,0,0,0],"sum_hessian":[3.8818134E1,2.647462E1,1.2343514E1,3.0736437E0,2.3400976E1,2.6730576E0,9.670457E0,2.1947279E1,1.453697E0,1.2809465E0,1.392111E0,5.7550826E0,1.6192196E1,3.1572177E0,2.597865E0,1.0531268E0,1.513907E1,1.3455902E1,1.6831683E0],"tree_param":{"num_deleted":"0","num_feature":"30","num_nodes":"19","size_leaf_vector":"1"}},{"base_weights":[6.124361E-2,-2.6296416E-1,5.0899357E-2,4.5980522E-1,-6.298685E-1,-4.6545688E-2,5.4751094E-2,-7.965086E-1,4.3832596E-2,2.929507E-3,-8.7725276E-1,-9.449708E-1,-3.6855533E-3,-4.9190216E-2,-1.3872179E-2],"categories":[],"categories_nodes":[],"categories_segments":[],"categories_sizes":[],"default_left":[0,0,0,0,0,0,0,0,0,0,0,0,0,0,0],"id":35,"left_children":[1,3,-1,5,7,-1,-1,9,-1,-1,11,13,-1,-1,-1],"loss_changes":[1.2824751E1,8.518704E0,0E0,1.0760328E1,5.9714136E0,0E0,0E0,1.3933859E0,0E0,0E0,9.001303E-1,1.5094376E-1,0E0,0E0,0E0],"parents":[2147483647,0,0,1,1,3,3,4,4,7,7,10,10,11,11],"right_children":[2,4,-1,6,8,-1,-1,10,-1,-1,12,14,-1,-1,-1],"split_conditions":[4.98835E-2,-4.2585602E-1,5.0899357E-2,-6.9747263E-1,5.843965E-1,-4.6545688E-2,5.4751094E-2,-2.241492E0,4.3832596E-2,2.929507E-3,2.6937008E-1,2.191442E-1,-3.6855533E-3,-4.9190216E-2,-1.3872179E-2],"split_indices":[0,2,0,2,7,0,0,19,0,0,20,5,0,0,0],"split_type":[0,0,0,0,0,0,0,0,0,0,0,0,0,0,0],"sum_hessian":[3.948265E1,3.0031235E1,9.451415E0,1.0026569E1,2.0004665E1,2.9977984E0,7.0287714E0,1.8436634E1,1.5680315E0,1.6143776E0,1.6822256E1,1.5352431E1,1.469825E0,1.4060646E1,1.2917846E0],"tree_param":{"num_deleted":"0","num_feature":"30","num_nodes":"15","size_leaf_vector":"1"}},{"base_weights":[5.1252298E-2,-4.7812226E-1,6.53572E-1,-6.4965224E-1,4.670444E-2,-3.526371E-2,7.726848E-1,-8.119422E-1,3.770527E-2,9.247582E-1,4.651439E-2,-2.528619E-1,-4.9361747E-2,1.04017E-2,4.8257753E-2,-2.4175985E-2,3.2175425E-2,-3.8499996E-2,2.4298699E-1,3.8127847E-2,-1.5553004E-2],"categories":[],"categories_nodes":[],"categories_segments":[],"categories_sizes":[],"default_left":[0,0,0,0,0,0,0,0,0,0,0,0,0,0,0,0,0,0,0,0,0],"id":36,"left_children":[1,3,5,7,-1,-1,9,11,-1,13,15,17,-1,-1,-1,-1,-1,-1,19,-1,-1],"loss_changes":[1.2601059E1,5.715497E0,3.5312586E0,5.0308285E0,0E0,0E0,1.8829737E0,1.5013638E0,0E0,2.1520805E-1,1.5999297E0,1.6253941E0,0E0,0E0,0E0,0E0,0E0,0E0,1.2803161E0,0E0,0E0],"parents":[2147483647,0,0,1,1,2,2,3,3,6,6,7,7,9,9,10,10,11,11,18,18],"right_children":[2,4,6,8,-1,-1,10,12,-1,14,16,18,-1,-1,-1,-1,-1,-1,20,-1,-1],"split_conditions":[5.593728E-1,4.143881E-1,-6.9747263E-1,4.947302E-2,4.670444E-2,-3.526371E-2,1.8384472E0,-3.5795188E-1,3.770527E-2,-6.436255E-1,2.621468E-1,-6.9747263E-1,-4.9361747E-2,1.04017E-2,4.8257753E-2,-2.4175985E-2,3.2175425E-2,-3.8499996E-2,-4.9376017E-1,3.8127847E-2,-1.5553004E-2],"split_indices":[16,22,2,2,0,0,18,2,0,1,1,2,0,0,0,0,0,0,2,0,0],"split_type":[0,0,0,0,0,0,0,0,0,0,0,0,0,0,0,0,0,0,0,0,0],"sum_hessian":[3.7539955E1,2.0089571E1,1.7450384E1,1.8395226E1,1.6943456E0,1.0097728E0,1.6440613E1,1.6866827E1,1.5283988E0,1.3367699E1,3.0729134E0,4.6090837E0,1.2257744E1,1.0413713E0,1.2326327E1,1.7284268E0,1.3444867E0,1.9854727E0,2.6236107E0,1.159719E0,1.4638919E0],"tree_param":{"num_deleted":"0","num_feature":"30","num_nodes":"21","size_leaf_vector":"1"}},{"base_weights":[-1.4514602E-2,-3.7877303E-1,8.4748006E-1,4.6595607E-2,-5.618303E-1,2.3918389E-1,4.937786E-2,7.1068846E-2,-7.7830994E-1,3.0264726E-2,-1.15598915E-2,-4.5109425E-2,4.7886126E-2,3.0099729E-3,-8.385224E-1,-9.1824293E-1,-1.9341902E-1,-1.7446695E-2,-4.8353788E-2,5.477359E-3,-2.0427331E-2],"categories":[],"categories_nodes":[],"categories_segments":[],"categories_sizes":[],"default_left":[0,0,0,0,0,0,0,0,0,0,0,0,0,0,0,0,0,0,0,0,0],"id":37,"left_children":[1,3,5,-1,7,9,-1,11,13,-1,-1,-1,-1,-1,15,17,19,-1,-1,-1,-1],"loss_changes":[1.1744624E1,6.825594E0,7.1098757E-1,0E0,3.298473E0,7.255129E-1,0E0,6.860904E0,9.452238E-1,0E0,0E0,0E0,0E0,0E0,6.761694E-1,6.590748E-2,2.4633068E-1,0E0,0E0,0E0,0E0],"parents":[2147483647,0,0,1,1,2,2,4,4,5,5,7,7,8,8,14,14,15,15,16,16],"right_children":[2,4,6,-1,8,10,-1,12,14,-1,-1,-1,-1,-1,16,18,20,-1,-1,-1,-1],"split_conditions":[-7.99785E-2,3.2444283E-1,9.317084E-2,4.6595607E-2,-4.2585602E-1,-8.633527E-2,4.937786E-2,-6.9747263E-1,-2.241492E0,3.0264726E-2,-1.15598915E-2,-4.5109425E-2,4.7886126E-2,3.0099729E-3,1.0546969E-1,-9.455496E-1,4.9655816E-1,-1.7446695E-2,-4.8353788E-2,5.477359E-3,-2.0427331E-2],"split_indices":[0,14,0,0,2,2,0,2,19,0,0,0,0,0,20,1,19,0,0,0,0],"split_type":[0,0,0,0,0,0,0,0,0,0,0,0,0,0,0,0,0,0,0,0,0],"sum_hessian":[3.538225E1,2.526602E1,1.0116234E1,2.5950077E0,2.2671011E1,2.4002917E0,7.715942E0,5.9493165E0,1.6721695E1,1.1884633E0,1.2118284E0,2.8277957E0,3.1215208E0,1.1203324E0,1.5601363E1,1.3508594E1,2.0927691E0,1.7106568E0,1.1797936E1,1.0727649E0,1.0200043E0],"tree_param":{"num_deleted":"0","num_feature":"30","num_nodes":"21","size_leaf_vector":"1"}},{"base_weights":[4.8794304E-3,-5.327172E-1,6.2141037E-1,-6.869363E-1,3.8724367E-2,1.14554815E-1,4.9562123E-2,-2.5308397E-1,-8.410468E-1,4.2022433E-2,-2.1386203E-1,-3.8578223E-2,1.9470221E-1,-4.7080398E-2,7.028307E-4,-5.938198E-1,3.862564E-2,3.3163905E-2,-9.514099E-3,-4.307361E-2,-1.3840778E-1,-1.2032365E-3,-9.214611E-3],"categories":[],"categories_nodes":[],"categories_segments":[],"categories_sizes":[],"default_left":[0,0,0,0,0,0,0,0,0,0,0,0,0,0,0,0,0,0,0,0,0,0,0],"id":38,"left_children":[1,3,5,7,-1,9,-1,11,13,-1,15,-1,17,-1,-1,19,-1,-1,-1,-1,21,-1,-1],"loss_changes":[1.2238286E1,4.509426E0,3.1098056E0,1.0025167E0,0E0,2.1786163E0,0E0,1.5884951E0,1.129611E0,0E0,2.921053E0,0E0,8.699017E-1,0E0,0E0,5.278162E-1,0E0,0E0,0E0,0E0,1.2125269E-2,0E0,0E0],"parents":[2147483647,0,0,1,1,2,2,3,3,5,5,7,7,8,8,10,10,12,12,15,15,20,20],"right_children":[2,4,6,8,-1,10,-1,12,14,-1,16,-1,18,-1,-1,20,-1,-1,-1,-1,22,-1,-1],"split_conditions":[5.593728E-1,8.9836806E-1,-2.098405E-1,-3.5795188E-1,3.8724367E-2,3.2444283E-1,4.9562123E-2,-6.9747263E-1,1.3108523E-1,4.2022433E-2,5.0259584E-1,-3.8578223E-2,-5.6166434E-1,-4.7080398E-2,7.028307E-4,-2.4106003E-1,3.862564E-2,3.3163905E-2,-9.514099E-3,-4.307361E-2,2.4243209E-1,-1.2032365E-3,-9.214611E-3],"split_indices":[16,25,0,2,0,14,0,2,13,0,27,0,2,0,0,1,0,0,0,0,19,0,0],"split_type":[0,0,0,0,0,0,0,0,0,0,0,0,0,0,0,0,0,0,0,0,0,0,0],"sum_hessian":[3.4925274E1,1.872958E1,1.6195694E1,1.7177538E1,1.552042E0,7.3846984E0,8.810995E0,5.194943E0,1.19825945E1,1.8146718E0,5.5700264E0,2.0723526E0,3.12259E0,1.0631192E1,1.3514025E0,4.308387E0,1.2616401E0,1.0823537E0,2.0402365E0,2.151995E0,2.1563916E0,1.0540886E0,1.1023029E0],"tree_param":{"num_deleted":"0","num_feature":"30","num_nodes":"23","size_leaf_vector":"1"}},{"base_weights":[4.082657E-2,-4.6159324E-1,6.27001E-1,-6.3460314E-1,3.9579924E-2,-2.2651209E-2,7.8344077E-1,-7.809215E-1,4.1897416E-2,3.8059747E-1,4.89763E-2,-1.5702346E-1,-8.993154E-1,6.120609E-1,-1.384141E-2,-3.5743035E-2,3.217467E-2,-9.5871854E-1,-6.6020116E-3,8.448961E-3,4.1959915E-2,-6.791321E-3,-5.1143583E-2],"categories":[],"categories_nodes":[],"categories_segments":[],"categories_sizes":[],"default_left":[0,0,0,0,0,0,0,0,0,0,0,0,0,0,0,0,0,0,0,0,0,0,0],"id":39,"left_children":[1,3,5,7,-1,-1,9,11,-1,13,-1,15,17,19,-1,-1,-1,21,-1,-1,-1,-1,-1],"loss_changes":[1.0207401E1,4.558917E0,3.052662E0,4.316186E0,0E0,0E0,7.5780964E-1,1.0389214E0,0E0,1.1313746E0,0E0,2.1389754E0,4.758196E-1,3.6006868E-1,0E0,0E0,0E0,5.002346E-1,0E0,0E0,0E0,0E0,0E0],"parents":[2147483647,0,0,1,1,2,2,3,3,6,6,7,7,9,9,11,11,12,12,13,13,17,17],"right_children":[2,4,6,8,-1,-1,10,12,-1,14,-1,16,18,20,-1,-1,-1,22,-1,-1,-1,-1,-1],"split_conditions":[5.593728E-1,5.843965E-1,-4.872673E-1,4.143881E-1,3.9579924E-2,-2.2651209E-2,-2.098405E-1,-5.4446552E-2,4.1897416E-2,-2.5312784E-1,4.89763E-2,-3.524223E-1,4.769733E-1,6.0864065E-2,-1.384141E-2,-3.5743035E-2,3.217467E-2,-1.8468633E0,-6.6020116E-3,8.448961E-3,4.1959915E-2,-6.791321E-3,-5.1143583E-2],"split_indices":[16,7,19,22,0,0,0,25,0,0,0,7,20,1,0,0,0,19,0,0,0,0,0],"split_type":[0,0,0,0,0,0,0,0,0,0,0,0,0,0,0,0,0,0,0,0,0,0,0],"sum_hessian":[3.2676712E1,1.7709843E1,1.4966867E1,1.5995226E1,1.7146168E0,1.6537706E0,1.3313097E1,1.4976759E1,1.0184674E0,5.321476E0,7.991621E0,2.759796E0,1.2216963E1,3.9868188E0,1.3346574E0,1.6894853E0,1.0703106E0,1.11075E1,1.1094625E0,1.9421595E0,2.0446591E0,1.0287639E0,1.0078736E1],"tree_param":{"num_deleted":"0","num_feature":"30","num_nodes":"23","size_leaf_vector":"1"}},{"base_weights":[1.7379848E-2,-2.9473758E-1,4.8817333E-2,4.235276E-2,-4.5817542E-1,-5.726469E-1,2.6028827E-2,-6.9888896E-1,-1.0194596E-1,-7.614847E-1,-7.599695E-3,2.1069793E-2,-2.5745053E-2,-4.194557E-2,-1.25346845E-2],"categories":[],"categories_nodes":[],"categories_segments":[],"categories_sizes":[],"default_left":[0,0,0,0,0,0,0,0,0,0,0,0,0,0,0],"id":40,"left_children":[1,3,-1,-1,5,7,-1,9,11,13,-1,-1,-1,-1,-1],"loss_changes":[1.0078617E1,5.1368475E0,0E0,0E0,2.8648896E0,1.1758456E0,0E0,4.4492865E-1,1.4292034E0,3.6103058E-1,0E0,0E0,0E0,0E0,0E0],"parents":[2147483647,0,0,1,1,4,4,5,5,7,7,8,8,9,9],"right_children":[2,4,-1,-1,6,8,-1,10,12,14,-1,-1,-1,-1,-1],"split_conditions":[4.98835E-2,3.2444283E-1,4.8817333E-2,4.235276E-2,3.6278817E-1,-5.8608986E-2,2.6028827E-2,-1.1910574E-1,4.125437E-1,-1.4041866E-1,-7.599695E-3,2.1069793E-2,-2.5745053E-2,-4.194557E-2,-1.25346845E-2],"split_indices":[0,14,0,0,1,20,0,13,19,1,0,0,0,0,0],"split_type":[0,0,0,0,0,0,0,0,0,0,0,0,0,0,0],"sum_hessian":[3.1711378E1,2.4447151E1,7.264227E0,2.5374615E0,2.1909689E1,1.9987E1,1.9226896E0,1.5377871E1,4.60913E0,1.3446456E1,1.9314142E0,2.0238483E0,2.5852816E0,1.1118688E1,2.3277686E0],"tree_param":{"num_deleted":"0","num_feature":"30","num_nodes":"15","size_leaf_vector":"1"}},{"base_weights":[5.116194E-2,-2.6749268E-1,4.9101662E-2,4.4106852E-2,-4.2239723E-1,-5.51797E-1,4.4840097E-2,8.535259E-2,-7.618557E-1,-4.3413565E-2,4.623671E-2,-8.359501E-1,-1.6661713E-1,-7.1090125E-3,-4.390499E-2,4.0443046E-3,-1.6819794E-2],"categories":[],"categories_nodes":[],"categories_segments":[],"categories_sizes":[],"default_left":[0,0,0,0,0,0,0,0,0,0,0,0,0,0,0,0,0],"id":41,"left_children":[1,3,-1,-1,5,7,-1,9,11,-1,-1,13,15,-1,-1,-1,-1],"loss_changes":[1.0396399E1,5.04494E0,0E0,0E0,4.557197E0,3.0484133E0,0E0,5.9467263E0,6.04517E-1,0E0,0E0,3.0644417E-1,1.5813981E-1,0E0,0E0,0E0,0E0],"parents":[2147483647,0,0,1,1,4,4,5,5,7,7,8,8,11,11,12,12],"right_children":[2,4,-1,-1,6,8,-1,10,12,-1,-1,14,16,-1,-1,-1,-1],"split_conditions":[4.98835E-2,3.2444283E-1,4.9101662E-2,4.4106852E-2,4.143881E-1,-4.2585602E-1,4.4840097E-2,-6.9747263E-1,-1.6655317E-1,-4.3413565E-2,4.623671E-2,-1.3620961E0,2.7357683E-1,-7.1090125E-3,-4.390499E-2,4.0443046E-3,-1.6819794E-2],"split_indices":[0,14,0,0,22,2,0,2,0,0,0,20,20,0,0,0,0],"split_type":[0,0,0,0,0,0,0,0,0,0,0,0,0,0,0,0,0],"sum_hessian":[3.3163216E1,2.5236822E1,7.9263926E0,2.439235E0,2.2797586E1,2.129089E1,1.5066972E0,5.426108E0,1.5864781E1,2.5240777E0,2.90203E0,1.374894E1,2.1158407E0,1.0379457E0,1.2710995E1,1.0738959E0,1.0419447E0],"tree_param":{"num_deleted":"0","num_feature":"30","num_nodes":"17","size_leaf_vector":"1"}},{"base_weights":[4.893424E-2,-4.2045996E-1,5.821127E-1,-5.9870476E-1,4.4684205E-2,-4.521212E-3,8.1686974E-1,-7.6022995E-1,3.5249308E-2,-3.0217206E-1,2.9503448E-2,4.610006E-2,9.9731935E-3,-7.630945E-2,-9.1912544E-1,9.331511E-3,-2.8586686E-2,-3.5567608E-2,3.6524516E-2,-6.290696E-3,-4.906666E-2],"categories":[],"categories_nodes":[],"categories_segments":[],"categories_sizes":[],"default_left":[0,0,0,0,0,0,0,0,0,0,0,0,0,0,0,0,0,0,0,0,0],"id":42,"left_children":[1,3,5,7,-1,9,11,13,-1,15,-1,-1,-1,17,19,-1,-1,-1,-1,-1,-1],"loss_changes":[8.556203E0,4.808031E0,2.2027311E0,4.0446215E0,0E0,1.1619906E0,5.566826E-1,1.5932331E0,0E0,6.818863E-1,0E0,0E0,0E0,2.5568695E0,4.8502636E-1,0E0,0E0,0E0,0E0,0E0,0E0],"parents":[2147483647,0,0,1,1,2,2,3,3,5,5,6,6,7,7,9,9,13,13,14,14],"right_children":[2,4,6,8,-1,10,12,14,-1,16,-1,-1,-1,18,20,-1,-1,-1,-1,-1,-1],"split_conditions":[5.593728E-1,4.143881E-1,-2.4106003E-1,4.947302E-2,4.4684205E-2,4.947302E-2,1.8384472E0,-4.9376017E-1,3.5249308E-2,-4.2585602E-1,2.9503448E-2,4.610006E-2,9.9731935E-3,-6.9747263E-1,-1.3716929E0,9.331511E-3,-2.8586686E-2,-3.5567608E-2,3.6524516E-2,-6.290696E-3,-4.906666E-2],"split_indices":[16,22,1,2,0,2,18,2,0,2,0,0,0,2,20,0,0,0,0,0,0],"split_type":[0,0,0,0,0,0,0,0,0,0,0,0,0,0,0,0,0,0,0,0,0],"sum_hessian":[3.2209805E1,1.7241936E1,1.496787E1,1.5662022E1,1.5799139E0,4.5581803E0,1.0409689E1,1.4306352E1,1.3556702E0,3.3653097E0,1.1928707E0,8.473483E0,1.9362062E0,2.9762368E0,1.1330114E1,1.3055604E0,2.0597494E0,1.7315862E0,1.2446506E0,1.0436265E0,1.0286489E1],"tree_param":{"num_deleted":"0","num_feature":"30","num_nodes":"21","size_leaf_vector":"1"}},{"base_weights":[6.188179E-2,-2.1380243E-1,4.458786E-2,4.6115434E-1,-5.645135E-1,-4.14219E-2,5.1000863E-2,-7.893326E-1,4.720607E-2,-5.007096E-2,-3.1314644E-1,4.8353025E-3,-4.8872772E-1,-3.0182788E-2,-8.998211E-3],"categories":[],"categories_nodes":[],"categories_segments":[],"categories_sizes":[],"default_left":[0,0,0,0,0,0,0,0,0,0,0,0,0,0,0],"id":43,"left_children":[1,3,-1,5,7,-1,-1,9,-1,-1,11,-1,13,-1,-1],"loss_changes":[7.207681E0,5.9011097E0,0E0,7.114071E0,6.21636E0,0E0,0E0,1.1592369E0,0E0,0E0,4.753518E-1,0E0,4.501009E-2,0E0,0E0],"parents":[2147483647,0,0,1,1,3,3,4,4,7,7,10,10,12,12],"right_children":[2,4,-1,6,8,-1,-1,10,-1,-1,12,-1,14,-1,-1],"split_conditions":[6.5961652E-3,-4.2585602E-1,4.458786E-2,-6.9747263E-1,4.143881E-1,-4.14219E-2,5.1000863E-2,-3.3970252E-1,4.720607E-2,-5.007096E-2,-2.5312784E-1,4.8353025E-3,-1.6655317E-1,-3.0182788E-2,-8.998211E-3],"split_indices":[0,2,0,2,22,0,0,0,0,0,0,0,0,0,0],"split_type":[0,0,0,0,0,0,0,0,0,0,0,0,0,0,0],"sum_hessian":[2.9671005E1,2.2829443E1,6.8415627E0,7.6984916E0,1.5130952E1,2.181728E0,5.5167637E0,1.3583507E1,1.5474453E0,8.634724E0,4.948783E0,1.6189516E0,3.3298311E0,1.7305943E0,1.5992368E0],"tree_param":{"num_deleted":"0","num_feature":"30","num_nodes":"15","size_leaf_vector":"1"}},{"base_weights":[5.762557E-2,-2.5149873E-1,5.023964E-2,5.045061E-1,-6.04645E-1,-3.6498424E-2,4.918122E-2,-7.3477036E-1,3.018086E-2,4.498569E-3,-8.6845165E-1,-4.764372E-2,-4.960284E-4],"categories":[],"categories_nodes":[],"categories_segments":[],"categories_sizes":[],"default_left":[0,0,0,0,0,0,0,0,0,0,0,0,0],"id":44,"left_children":[1,3,-1,5,7,-1,-1,9,-1,-1,11,-1,-1],"loss_changes":[8.874538E0,6.4458585E0,0E0,5.371914E0,2.9799595E0,0E0,0E0,1.7335787E0,0E0,0E0,9.338379E-1,0E0,0E0],"parents":[2147483647,0,0,1,1,3,3,4,4,7,7,10,10],"right_children":[2,4,-1,6,8,-1,-1,10,-1,-1,12,-1,-1],"split_conditions":[5.843965E-1,-4.2585602E-1,5.023964E-2,-6.9747263E-1,5.8312947E-1,-3.6498424E-2,4.918122E-2,-7.292885E-1,3.018086E-2,4.498569E-3,2.191442E-1,-4.764372E-2,-4.960284E-4],"split_indices":[7,2,0,2,20,0,0,0,0,0,5,0,0],"split_type":[0,0,0,0,0,0,0,0,0,0,0,0,0],"sum_hessian":[2.844692E1,2.200099E1,6.445929E0,6.8685036E0,1.5132487E1,1.7740358E0,5.0944676E0,1.4015002E1,1.117485E0,2.0004249E0,1.2014577E1,1.083886E1,1.1757175E0],"tree_param":{"num_deleted":"0","num_feature":"30","num_nodes":"13","size_leaf_vector":"1"}},{"base_weights":[2.320536E-3,-2.8719327E-1,4.648247E-2,3.9783727E-2,-4.4016263E-1,-5.3948814E-1,3.709481E-2,-6.3328946E-1,2.2940854E-2,-6.998175E-1,6.1552296E-3,-3.7238322E-2,-1.7437043E-3],"categories":[],"categories_nodes":[],"categories_segments":[],"categories_sizes":[],"default_left":[0,0,0,0,0,0,0,0,0,0,0,0,0],"id":45,"left_children":[1,3,-1,-1,5,7,-1,9,-1,11,-1,-1,-1],"loss_changes":[8.004441E0,4.1148734E0,0E0,0E0,2.8139102E0,2.120644E0,0E0,1.0062695E0,0E0,4.8082256E-1,0E0,0E0,0E0],"parents":[2147483647,0,0,1,1,4,4,5,5,7,7,9,9],"right_children":[2,4,-1,-1,6,8,-1,10,-1,12,-1,-1,-1],"split_conditions":[9.317084E-2,3.2444283E-1,4.648247E-2,3.9783727E-2,4.143881E-1,4.6342954E-1,3.709481E-2,2.191442E-1,2.2940854E-2,2.077896E0,6.1552296E-3,-3.7238322E-2,-1.7437043E-3],"split_indices":[0,14,0,0,22,1,0,5,0,27,0,0,0],"split_type":[0,0,0,0,0,0,0,0,0,0,0,0,0],"sum_hessian":[2.7820066E1,2.172712E1,6.0929465E0,2.1692812E0,1.9557838E1,1.8543293E1,1.014544E0,1.7284836E1,1.2584578E0,1.5956218E1,1.3286185E0,1.4833459E1,1.1227591E0],"tree_param":{"num_deleted":"0","num_feature":"30","num_nodes":"13","size_leaf_vector":"1"}},{"base_weights":[1.0845366E-1,-2.072644E-1,4.7636174E-2,-3.4440887E-1,4.6717566E-2,3.4888703E-1,-6.9386315E-1,-4.0944424E-2,4.8698593E-2,-8.7837976E-1,-2.9696214E-1,-6.608393E-3,-4.795639E-2,6.604522E-2,-3.1450894E-2,-1.2014641E-2,1.5228345E-2],"categories":[],"categories_nodes":[],"categories_segments":[],"categories_sizes":[],"default_left":[0,0,0,0,0,0,0,0,0,0,0,0,0,0,0,0,0],"id":46,"left_children":[1,3,-1,5,-1,7,9,-1,-1,11,13,-1,-1,15,-1,-1,-1],"loss_changes":[8.097802E0,3.8278563E0,0E0,5.262616E0,0E0,6.35262E0,7.7267265E-1,0E0,0E0,4.229393E-1,7.6349896E-1,0E0,0E0,3.4838423E-1,0E0,0E0,0E0],"parents":[2147483647,0,0,1,1,3,3,5,5,6,6,9,9,10,10,13,13],"right_children":[2,4,-1,6,-1,8,10,-1,-1,12,14,-1,-1,16,-1,-1,-1],"split_conditions":[-3.669117E-2,4.143881E-1,4.7636174E-2,-4.2585602E-1,4.6717566E-2,-6.9747263E-1,-3.3970252E-1,-4.0944424E-2,4.8698593E-2,-2.0593119E0,4.125437E-1,-6.608393E-3,-4.795639E-2,2.4366653E-1,-3.1450894E-2,-1.2014641E-2,1.5228345E-2],"split_indices":[0,22,0,2,0,2,0,0,0,19,19,0,0,4,0,0,0],"split_type":[0,0,0,0,0,0,0,0,0,0,0,0,0,0,0,0,0],"sum_hessian":[2.8639095E1,2.1393438E1,7.2456565E0,1.9722456E1,1.670982E0,6.610081E0,1.3112374E1,2.1965222E0,4.413559E0,8.122966E0,4.9894085E0,1.0506302E0,7.0723357E0,2.7663276E0,2.2230809E0,1.2077568E0,1.558571E0],"tree_param":{"num_deleted":"0","num_feature":"30","num_nodes":"17","size_leaf_vector":"1"}},{"base_weights":[-6.914546E-3,-2.6975808E-1,4.852895E-2,4.0748388E-1,-6.338044E-1,-4.1369386E-2,4.9105182E-2,-7.3835355E-1,1.8134104E-2,5.3085866E-3,-8.123086E-1,-4.600291E-2,-3.58627E-1,-3.279845E-2,-7.952451E-4],"categories":[],"categories_nodes":[],"categories_segments":[],"categories_sizes":[],"default_left":[0,0,0,0,0,0,0,0,0,0,0,0,0,0,0],"id":47,"left_children":[1,3,-1,5,7,-1,-1,9,-1,-1,11,-1,13,-1,-1],"loss_changes":[7.7566786E0,6.119152E0,0E0,7.1417503E0,1.9193039E0,0E0,0E0,1.0028887E0,0E0,0E0,3.3536625E-1,0E0,4.227525E-1,0E0,0E0],"parents":[2147483647,0,0,1,1,3,3,4,4,7,7,10,10,12,12],"right_children":[2,4,-1,6,8,-1,-1,10,-1,-1,12,-1,14,-1,-1],"split_conditions":[5.843965E-1,-4.9376017E-1,4.852895E-2,-6.9747263E-1,5.8312947E-1,-4.1369386E-2,4.9105182E-2,-2.0593119E0,1.8134104E-2,5.3085866E-3,5.593728E-1,-4.600291E-2,-2.4106003E-1,-3.279845E-2,-7.952451E-4],"split_indices":[7,2,0,2,20,0,0,19,0,0,16,0,1,0,0],"split_type":[0,0,0,0,0,0,0,0,0,0,0,0,0,0,0],"sum_hessian":[2.8171055E1,2.2771841E1,5.3992133E0,7.9195814E0,1.4852261E1,2.3752422E0,5.544339E0,1.3676406E1,1.1758553E0,1.0661335E0,1.2610271E1,9.359423E0,3.2508495E0,1.251267E0,1.9995826E0],"tree_param":{"num_deleted":"0","num_feature":"30","num_nodes":"15","size_leaf_vector":"1"}},{"base_weights":[9.858336E-2,-1.3714819E-1,4.8021555E-2,-3.5794774E-1,3.8810115E-2,4.5481075E-2,-5.854356E-1,-4.0762104E-2,5.576156E-1,-7.474589E-1,8.26634E-2,4.4840705E-2,-4.5211636E-3,-4.3154653E-2,-2.9597473E-1,1.1567536E-2,-6.0482523E-3,-3.11264E-2,5.6168893E-3],"categories":[],"categories_nodes":[],"categories_segments":[],"categories_sizes":[],"default_left":[0,0,0,0,0,0,0,0,0,0,0,0,0,0,0,0,0,0,0],"id":48,"left_children":[1,3,-1,5,-1,7,9,-1,11,13,15,-1,-1,-1,17,-1,-1,-1,-1],"loss_changes":[5.779075E0,4.8560753E0,0E0,1.7672915E0,0E0,3.878181E0,1.3824053E0,0E0,1.2819775E0,2.623539E-1,1.2734258E-1,0E0,0E0,0E0,5.425053E-1,0E0,0E0,0E0,0E0],"parents":[2147483647,0,0,1,1,3,3,5,5,6,6,8,8,9,9,10,10,14,14],"right_children":[2,4,-1,6,-1,8,10,-1,12,14,16,-1,-1,-1,18,-1,-1,-1,-1],"split_conditions":[5.843965E-1,4.6342954E-1,4.8021555E-2,-3.5795188E-1,3.8810115E-2,-6.9747263E-1,-8.459664E-2,-4.0762104E-2,-4.2585602E-1,5.593728E-1,-2.4106003E-1,4.4840705E-2,-4.5211636E-3,-4.3154653E-2,-2.4106003E-1,1.1567536E-2,-6.0482523E-3,-3.11264E-2,5.6168893E-3],"split_indices":[7,1,0,2,0,2,13,0,2,16,1,0,0,0,1,0,0,0,0],"split_type":[0,0,0,0,0,0,0,0,0,0,0,0,0,0,0,0,0,0,0],"sum_hessian":[2.6796923E1,2.170191E1,5.095013E0,1.7966629E1,3.7352812E0,6.7666574E0,1.1199972E1,2.3034663E0,4.463191E0,8.918361E0,2.2816107E0,2.677721E0,1.7854702E0,6.3741374E0,2.5442238E0,1.2400199E0,1.0415908E0,1.1221409E0,1.4220831E0],"tree_param":{"num_deleted":"0","num_feature":"30","num_nodes":"19","size_leaf_vector":"1"}},{"base_weights":[1.4756217E-2,-2.7665472E-1,4.5765862E-2,4.0907603E-2,-4.4609138E-1,-5.694099E-1,3.964975E-2,1.2334232E-1,-7.7395767E-1,-3.734304E-2,4.094871E-2,-4.527774E-2,-1.5731889E-1,5.073789E-3,-2.088838E-2],"categories":[],"categories_nodes":[],"categories_segments":[],"categories_sizes":[],"default_left":[0,0,0,0,0,0,0,0,0,0,0,0,0,0,0],"id":49,"left_children":[1,3,-1,-1,5,7,-1,9,11,-1,-1,-1,13,-1,-1],"loss_changes":[7.3883405E0,4.3178453E0,0E0,0E0,3.370138E0,2.639512E0,0E0,3.611271E0,9.9348164E-1,0E0,0E0,0E0,2.8991282E-1,0E0,0E0],"parents":[2147483647,0,0,1,1,4,4,5,5,7,7,8,8,12,12],"right_children":[2,4,-1,-1,6,8,-1,10,12,-1,-1,-1,14,-1,-1],"split_conditions":[9.317084E-2,3.2444283E-1,4.5765862E-2,4.0907603E-2,4.143881E-1,-4.2585602E-1,3.964975E-2,-6.9747263E-1,-2.098405E-1,-3.734304E-2,4.094871E-2,-4.527774E-2,2.7357683E-1,5.073789E-3,-2.088838E-2],"split_indices":[0,14,0,0,22,2,0,2,0,0,0,0,20,0,0],"split_type":[0,0,0,0,0,0,0,0,0,0,0,0,0,0,0],"sum_hessian":[2.6188292E1,2.0309254E1,5.879038E0,2.208765E0,1.8100489E1,1.6953657E1,1.1468316E0,3.9552414E0,1.2998416E1,1.7244238E0,2.2308176E0,1.0326169E1,2.6722465E0,1.6465421E0,1.0257043E0],"tree_param":{"num_deleted":"0","num_feature":"30","num_nodes":"15","size_leaf_vector":"1"}},{"base_weights":[-1.2180973E-2,-2.6310155E-1,4.6934374E-2,-5.0096846E-1,3.7576336E-2,1.5153968E-2,-7.441617E-1,-3.8945165E-2,5.357503E-1,3.7977404E-3,-8.4147376E-1,3.97686E-2,4.7735832E-4,-4.9407955E-2,-1.8733989E-1,1.1321194E-2,-2.497695E-2],"categories":[],"categories_nodes":[],"categories_segments":[],"categories_sizes":[],"default_left":[0,0,0,0,0,0,0,0,0,0,0,0,0,0,0,0,0],"id":50,"left_children":[1,3,-1,5,-1,7,9,-1,11,-1,13,-1,-1,-1,15,-1,-1],"loss_changes":[6.412758E0,5.4997497E0,0E0,2.2450323E0,0E0,3.1786385E0,1.0308995E0,0E0,6.245378E-1,0E0,8.621068E-1,0E0,0E0,0E0,5.3074384E-1,0E0,0E0],"parents":[2147483647,0,0,1,1,3,3,5,5,6,6,8,8,10,10,14,14],"right_children":[2,4,-1,6,-1,8,10,-1,12,-1,14,-1,-1,-1,16,-1,-1],"split_conditions":[5.843965E-1,4.6342954E-1,4.6934374E-2,-3.5795188E-1,3.7576336E-2,-6.9747263E-1,-7.292885E-1,-3.8945165E-2,-4.2585602E-1,3.7977404E-3,1.2518373E-1,3.97686E-2,4.7735832E-4,-4.9407955E-2,5.7555395E-1,1.1321194E-2,-2.497695E-2],"split_indices":[7,1,0,2,0,2,0,0,2,0,20,0,0,0,19,0,0],"split_type":[0,0,0,0,0,0,0,0,0,0,0,0,0,0,0,0,0],"sum_hessian":[2.4842342E1,2.0227816E1,4.614527E0,1.679637E1,3.4314446E0,5.679856E0,1.1116515E1,2.052712E0,3.6271436E0,1.2024128E0,9.914102E0,2.086274E0,1.5408698E0,7.68104E0,2.2330623E0,1.0784785E0,1.1545837E0],"tree_param":{"num_deleted":"0","num_feature":"30","num_nodes":"17","size_leaf_vector":"1"}},{"base_weights":[-1.2280142E-2,-2.9704383E-1,4.7237445E-2,4.337944E-1,-6.5672404E-1,-3.66556E-2,4.670393E-2,-8.036748E-1,1.1110362E-2,-4.2598923E-3,-9.0466225E-1,-1.5104323E-2,-4.8034724E-2],"categories":[],"categories_nodes":[],"categories_segments":[],"categories_sizes":[],"default_left":[0,0,0,0,0,0,0,0,0,0,0,0,0],"id":51,"left_children":[1,3,-1,5,7,-1,-1,9,-1,-1,11,-1,-1],"loss_changes":[7.158265E0,5.5974874E0,0E0,4.927748E0,1.979342E0,0E0,0E0,8.0533695E-1,0E0,0E0,6.629467E-2,0E0,0E0],"parents":[2147483647,0,0,1,1,3,3,4,4,7,7,10,10],"right_children":[2,4,-1,6,8,-1,-1,10,-1,-1,12,-1,-1],"split_conditions":[5.843965E-1,-4.2585602E-1,4.7237445E-2,-6.9747263E-1,-7.172379E-3,-3.66556E-2,4.670393E-2,-1.046191E0,1.1110362E-2,-4.2598923E-3,-3.5795188E-1,-1.5104323E-2,-4.8034724E-2],"split_indices":[7,2,0,2,13,0,0,1,0,0,2,0,0],"split_type":[0,0,0,0,0,0,0,0,0,0,0,0,0],"sum_hessian":[2.4236511E1,1.9210155E1,5.026357E0,6.2680264E0,1.2942128E1,1.7412328E0,4.5267935E0,1.11616125E1,1.7805157E0,1.6027149E0,9.558898E0,1.3569913E0,8.201906E0],"tree_param":{"num_deleted":"0","num_feature":"30","num_nodes":"13","size_leaf_vector":"1"}},{"base_weights":[1.4520694E-1,-2.9285756E-1,6.534266E-1,-4.7354817E-1,4.0343653E-2,5.0389603E-2,8.3600837E-1,-6.379849E-1,3.1555068E-2,-8.702527E-3,1.28435185E-2,4.5357823E-2,1.3164497E-2,-7.742786E-2,-4.3862216E-2,-2.7867163E-2,2.3692349E-1,3.138655E-2,-1.0737292E-2],"categories":[],"categories_nodes":[],"categories_segments":[],"categories_sizes":[],"default_left":[0,0,0,0,0,0,0,0,0,0,0,0,0,0,0,0,0,0,0],"id":52,"left_children":[1,3,5,7,-1,9,11,13,-1,-1,-1,-1,-1,15,-1,-1,17,-1,-1],"loss_changes":[5.5337677E0,3.080245E0,1.2150578E0,2.635466E0,0E0,2.170002E-1,1.1567783E-1,1.4337835E0,0E0,0E0,0E0,0E0,0E0,8.0282086E-1,0E0,0E0,7.3288256E-1,0E0,0E0],"parents":[2147483647,0,0,1,1,2,2,3,3,5,5,6,6,7,7,13,13,16,16],"right_children":[2,4,6,8,-1,10,12,14,-1,-1,-1,-1,-1,16,-1,-1,18,-1,-1],"split_conditions":[5.593728E-1,4.143881E-1,-2.4106003E-1,5.843965E-1,4.0343653E-2,-2.2214358E-1,1.8384472E0,-3.5795188E-1,3.1555068E-2,-8.702527E-3,1.28435185E-2,4.5357823E-2,1.3164497E-2,-6.9747263E-1,-4.3862216E-2,-2.7867163E-2,-4.9376017E-1,3.138655E-2,-1.0737292E-2],"split_indices":[16,22,1,7,0,2,18,2,0,0,0,0,0,2,0,0,2,0,0],"split_type":[0,0,0,0,0,0,0,0,0,0,0,0,0,0,0,0,0,0,0],"sum_hessian":[2.2996473E1,1.2578274E1,1.0418199E1,1.1292296E1,1.285978E0,2.7177868E0,7.700412E0,1.0196859E1,1.0954362E0,1.3775171E0,1.3402697E0,6.330085E0,1.3703271E0,3.4462683E0,6.7505913E0,1.0580163E0,2.388252E0,1.0714103E0,1.3168417E0],"tree_param":{"num_deleted":"0","num_feature":"30","num_nodes":"19","size_leaf_vector":"1"}},{"base_weights":[1.10550836E-1,-1.3456766E-1,4.644292E-2,4.465762E-1,-4.3798608E-1,-3.5956126E-2,4.5662656E-2,-6.074422E-1,3.8403954E-2,-7.232983E-1,1.6399022E-2,-7.970663E-1,-5.182116E-4,-4.6658465E-3,-4.3176703E-2],"categories":[],"categories_nodes":[],"categories_segments":[],"categories_sizes":[],"default_left":[0,0,0,0,0,0,0,0,0,0,0,0,0,0,0],"id":53,"left_children":[1,3,-1,5,7,-1,-1,9,-1,11,-1,13,-1,-1,-1],"loss_changes":[5.0460896E0,3.6785364E0,0E0,4.611944E0,3.2219288E0,0E0,0E0,1.5788393E0,0E0,5.8745E-1,0E0,3.9896393E-1,0E0,0E0,0E0],"parents":[2147483647,0,0,1,1,3,3,4,4,7,7,9,9,11,11],"right_children":[2,4,-1,6,8,-1,-1,10,-1,12,-1,14,-1,-1,-1],"split_conditions":[5.843965E-1,-5.6166434E-1,4.644292E-2,-6.9747263E-1,4.143881E-1,-3.5956126E-2,4.5662656E-2,5.8312947E-1,3.8403954E-2,2.191442E-1,1.6399022E-2,-1.2762051E0,-5.182116E-4,-4.6658465E-3,-4.3176703E-2],"split_indices":[7,2,0,2,22,0,0,20,0,5,0,20,0,0,0],"split_type":[0,0,0,0,0,0,0,0,0,0,0,0,0,0,0],"sum_hessian":[2.3534046E1,1.8752434E1,4.7816114E0,6.2705317E0,1.2481902E1,1.6380216E0,4.63251E0,1.1379403E1,1.1024996E0,1.0327113E1,1.0522896E0,9.251812E0,1.0753013E0,1.0058619E0,8.24595E0],"tree_param":{"num_deleted":"0","num_feature":"30","num_nodes":"15","size_leaf_vector":"1"}},{"base_weights":[-3.435644E-2,-2.8827214E-1,4.49581E-2,3.909723E-1,-6.44788E-1,-3.6254343E-2,4.5294385E-2,-8.1985986E-1,1.573475E-1,-4.618297E-2,-6.0564955E-3,-6.0154684E-3,1.7712867E-2],"categories":[],"categories_nodes":[],"categories_segments":[],"categories_sizes":[],"default_left":[0,0,0,0,0,0,0,0,0,0,0,0,0],"id":54,"left_children":[1,3,-1,5,7,-1,-1,9,11,-1,-1,-1,-1],"loss_changes":[5.713731E0,4.8163624E0,0E0,4.7428823E0,1.9178023E0,0E0,0E0,6.581335E-1,2.1325839E-1,0E0,0E0,0E0,0E0],"parents":[2147483647,0,0,1,1,3,3,4,4,7,7,8,8],"right_children":[2,4,-1,6,8,-1,-1,10,12,-1,-1,-1,-1],"split_conditions":[5.843965E-1,-4.2585602E-1,4.49581E-2,-6.9747263E-1,-2.8794932E-1,-3.6254343E-2,4.5294385E-2,1.2518373E-1,-2.098405E-1,-4.618297E-2,-6.0564955E-3,-6.0154684E-3,1.7712867E-2],"split_indices":[7,2,0,2,12,0,0,20,0,0,0,0,0],"split_type":[0,0,0,0,0,0,0,0,0,0,0,0,0],"sum_hessian":[2.2011486E1,1.7848042E1,4.163444E0,6.1101527E0,1.1737889E1,1.8001755E0,4.309977E0,9.616846E0,2.1210427E0,8.092724E0,1.5241228E0,1.041486E0,1.0795567E0],"tree_param":{"num_deleted":"0","num_feature":"30","num_nodes":"13","size_leaf_vector":"1"}},{"base_weights":[9.236678E-2,-3.318478E-1,5.9915066E-1,-5.19884E-1,3.9364595E-2,1.4198476E-2,4.1957308E-2,-6.902005E-1,2.9911244E-2,1.4583181E-2,-1.7868116E-2,-5.507063E-2,-4.6901833E-2,1.7802048E-3,-7.4303313E-3],"categories":[],"categories_nodes":[],"categories_segments":[],"categories_sizes":[],"default_left":[0,0,0,0,0,0,0,0,0,0,0,0,0,0,0],"id":55,"left_children":[1,3,5,7,-1,9,-1,11,-1,-1,-1,13,-1,-1,-1],"loss_changes":[5.0060353E0,3.1061695E0,1.4684825E0,2.617008E0,0E0,5.2537775E-1,0E0,1.6024742E0,0E0,0E0,0E0,3.9317977E-2,0E0,0E0,0E0],"parents":[2147483647,0,0,1,1,2,2,3,3,5,5,7,7,11,11],"right_children":[2,4,6,8,-1,10,-1,12,-1,-1,-1,14,-1,-1,-1],"split_conditions":[5.593728E-1,4.143881E-1,-3.3970252E-1,4.947302E-2,3.9364595E-2,-4.2585602E-1,4.1957308E-2,-3.5795188E-1,2.9911244E-2,1.4583181E-2,-1.7868116E-2,-4.9376017E-1,-4.6901833E-2,1.7802048E-3,-7.4303313E-3],"split_indices":[16,22,0,2,0,2,0,2,0,0,0,2,0,0,0],"split_type":[0,0,0,0,0,0,0,0,0,0,0,0,0,0,0],"sum_hessian":[2.1360659E1,1.1815459E1,9.545199E0,1.057425E1,1.2412088E0,3.0850427E0,6.460157E0,9.50856E0,1.0656896E0,1.889259E0,1.1957837E0,3.0119746E0,6.496586E0,1.8438663E0,1.1681082E0],"tree_param":{"num_deleted":"0","num_feature":"30","num_nodes":"15","size_leaf_vector":"1"}},{"base_weights":[5.793032E-2,-3.9805397E-1,5.496189E-1,-5.56382E-1,2.929993E-2,1.5140314E-1,4.3523535E-2,1.6224895E-2,-8.027943E-1,-1.5653013E-1,3.5915297E-2,-5.8036754E-3,6.815761E-3,-4.5350213E-2,-6.64687E-3,1.2906062E-2,-3.6400872E-1,-2.9268865E-2,1.2469835E-3],"categories":[],"categories_nodes":[],"categories_segments":[],"categories_sizes":[],"default_left":[0,0,0,0,0,0,0,0,0,0,0,0,0,0,0,0,0,0,0],"id":56,"left_children":[1,3,5,7,-1,9,-1,11,13,15,-1,-1,-1,-1,-1,-1,17,-1,-1],"loss_changes":[4.8739133E0,2.0948172E0,1.1983333E0,1.4652271E0,0E0,1.1346651E0,0E0,8.059265E-2,3.831067E-1,4.910499E-1,0E0,0E0,0E0,0E0,0E0,0E0,3.1519914E-1,0E0,0E0],"parents":[2147483647,0,0,1,1,2,2,3,3,5,5,7,7,8,8,9,9,16,16],"right_children":[2,4,6,8,-1,10,-1,12,14,16,-1,-1,-1,-1,-1,-1,18,-1,-1],"split_conditions":[5.593728E-1,5.843965E-1,-2.098405E-1,-3.5795188E-1,2.929993E-2,5.0259584E-1,4.3523535E-2,-4.4744197E-1,-7.172379E-3,-6.536304E-1,3.5915297E-2,-5.8036754E-3,6.815761E-3,-4.5350213E-2,-6.64687E-3,1.2906062E-2,2.4243209E-1,-2.9268865E-2,1.2469835E-3],"split_indices":[16,7,0,2,0,27,0,19,13,20,0,0,0,0,0,0,19,0,0],"split_type":[0,0,0,0,0,0,0,0,0,0,0,0,0,0,0,0,0,0,0],"sum_hessian":[1.9763103E1,1.0352652E1,9.410452E0,9.292196E0,1.0604558E0,4.8557544E0,4.554698E0,3.0767276E0,6.2154684E0,3.615664E0,1.2400903E0,1.4798682E0,1.5968595E0,5.0723357E0,1.1431323E0,1.1244117E0,2.4912522E0,1.2658008E0,1.2254514E0],"tree_param":{"num_deleted":"0","num_feature":"30","num_nodes":"19","size_leaf_vector":"1"}},{"base_weights":[8.911742E-2,-1.3084723E-1,4.414039E-2,-3.036453E-1,3.3763323E-2,9.959916E-2,-5.425384E-1,-3.612339E-2,5.470744E-1,-6.9595706E-1,-1.5979627E-2,4.1515913E-2,-1.0961387E-3,-2.7250887E-3,-7.8746367E-1,1.8427737E-2,-2.0599026E-2,-4.3417774E-2,-1.4309155E-2],"categories":[],"categories_nodes":[],"categories_segments":[],"categories_sizes":[],"default_left":[0,0,0,0,0,0,0,0,0,0,0,0,0,0,0,0,0,0,0],"id":57,"left_children":[1,3,-1,5,-1,7,9,-1,11,13,15,-1,-1,-1,17,-1,-1,-1,-1],"loss_changes":[4.026051E0,2.7693849E0,0E0,1.5808672E0,0E0,2.8750973E0,8.0546117E-1,0E0,8.1344473E-1,4.1516042E-1,6.5497994E-1,0E0,0E0,0E0,2.5419712E-2,0E0,0E0,0E0,0E0],"parents":[2147483647,0,0,1,1,3,3,5,5,6,6,8,8,9,9,10,10,14,14],"right_children":[2,4,-1,6,-1,8,10,-1,12,14,16,-1,-1,-1,18,-1,-1,-1,-1],"split_conditions":[5.843965E-1,4.6342954E-1,4.414039E-2,-3.5795188E-1,3.3763323E-2,-6.9747263E-1,1.2518373E-1,-3.612339E-2,-4.2585602E-1,-1.046191E0,6.0039634E-1,4.1515913E-2,-1.0961387E-3,-2.7250887E-3,-1.4041866E-1,1.8427737E-2,-2.0599026E-2,-4.3417774E-2,-1.4309155E-2],"split_indices":[7,1,0,2,0,2,20,0,2,1,19,0,0,0,1,0,0,0,0],"split_type":[0,0,0,0,0,0,0,0,0,0,0,0,0,0,0,0,0,0,0],"sum_hessian":[2.13992E1,1.7409454E1,3.9897447E0,1.4849621E1,2.5598345E0,5.7413955E0,9.108225E0,1.8070606E0,3.934335E0,6.8040752E0,2.3041499E0,2.3201234E0,1.6142114E0,1.0486577E0,5.755418E0,1.2041628E0,1.099987E0,4.3251867E0,1.4302309E0],"tree_param":{"num_deleted":"0","num_feature":"30","num_nodes":"19","size_leaf_vector":"1"}},{"base_weights":[5.2978005E-2,-3.5121962E-1,5.61128E-1,-5.3701764E-1,3.2843914E-2,-5.6441096E-3,7.589234E-1,-6.4940405E-1,-6.175255E-5,1.7822463E-2,-2.0934194E-2,4.2523608E-2,5.341439E-3,-6.464328E-3,-3.7590872E-2],"categories":[],"categories_nodes":[],"categories_segments":[],"categories_sizes":[],"default_left":[0,0,0,0,0,0,0,0,0,0,0,0,0,0,0],"id":58,"left_children":[1,3,5,7,-1,9,11,13,-1,-1,-1,-1,-1,-1,-1],"loss_changes":[4.4240556E0,2.6148915E0,1.0695608E0,6.4639115E-1,0E0,6.6535807E-1,3.3011198E-1,3.7594867E-1,0E0,0E0,0E0,0E0,0E0,0E0,0E0],"parents":[2147483647,0,0,1,1,2,2,3,3,5,5,6,6,7,7],"right_children":[2,4,6,8,-1,10,12,14,-1,-1,-1,-1,-1,-1,-1],"split_conditions":[5.593728E-1,5.843965E-1,-3.3970252E-1,-6.49892E-2,3.2843914E-2,-5.4446552E-2,1.8384472E0,-5.4446552E-2,-6.175255E-5,1.7822463E-2,-2.0934194E-2,4.2523608E-2,5.341439E-3,-6.464328E-3,-3.7590872E-2],"split_indices":[16,7,0,13,0,25,18,25,0,0,0,0,0,0,0],"split_type":[0,0,0,0,0,0,0,0,0,0,0,0,0,0,0],"sum_hessian":[1.957994E1,1.1077441E1,8.5025E0,9.748107E0,1.3293339E0,2.4509366E0,6.051563E0,7.882581E0,1.8655258E0,1.3790209E0,1.0719156E0,5.0398006E0,1.0117625E0,1.668964E0,6.2136173E0],"tree_param":{"num_deleted":"0","num_feature":"30","num_nodes":"15","size_leaf_vector":"1"}},{"base_weights":[5.231135E-3,-3.7681448E-1,4.9652407E-1,2.1237382E-1,-6.6615564E-1,1.6753314E-1,4.1471925E-2,-3.267874E-2,3.9970435E-2,-3.8873315E-2,-6.597926E-3,-1.9603547E-2,5.094505E-1,6.40831E-3,3.5370026E-2],"categories":[],"categories_nodes":[],"categories_segments":[],"categories_sizes":[],"default_left":[0,0,0,0,0,0,0,0,0,0,0,0,0,0,0],"id":59,"left_children":[1,3,5,7,9,11,-1,-1,-1,-1,-1,-1,13,-1,-1],"loss_changes":[4.0087166E0,2.1909986E0,8.838289E-1,2.9207206E0,3.9121103E-1,1.3381929E0,0E0,0E0,0E0,0E0,0E0,0E0,2.2091389E-1,0E0,0E0],"parents":[2147483647,0,0,1,1,2,2,3,3,4,4,5,5,12,12],"right_children":[2,4,6,8,10,12,-1,-1,-1,-1,-1,-1,14,-1,-1],"split_conditions":[-5.8608986E-2,-4.2585602E-1,7.3543435E-1,-6.9747263E-1,-2.4857923E-1,5.593728E-1,4.1471925E-2,-3.267874E-2,3.9970435E-2,-3.8873315E-2,-6.597926E-3,-1.9603547E-2,5.0259584E-1,6.40831E-3,3.5370026E-2],"split_indices":[20,2,20,2,20,16,0,0,0,0,0,0,27,0,0],"split_type":[0,0,0,0,0,0,0,0,0,0,0,0,0,0,0],"sum_hessian":[1.9360651E1,1.1022334E1,8.338317E0,3.7177835E0,7.304551E0,4.949943E0,3.3883739E0,1.4562647E0,2.2615187E0,5.668097E0,1.6364539E0,1.8217182E0,3.1282248E0,1.6320655E0,1.4961594E0],"tree_param":{"num_deleted":"0","num_feature":"30","num_nodes":"15","size_leaf_vector":"1"}},{"base_weights":[1.2385099E-1,-1.0167191E-1,4.243909E-2,-2.5585794E-1,4.3463405E-2,-3.9028037E-1,3.0863767E-2,-4.6673727E-1,1.0579312E-2,-6.488811E-2,-5.946636E-1,-1.0874218E-2,7.382765E-3,1.6653369E-3,-3.4878865E-2],"categories":[],"categories_nodes":[],"categories_segments":[],"categories_sizes":[],"default_left":[0,0,0,0,0,0,0,0,0,0,0,0,0,0,0],"id":60,"left_children":[1,3,-1,5,-1,7,-1,9,-1,11,13,-1,-1,-1,-1],"loss_changes":[3.514243E0,2.7502413E0,0E0,2.0418181E0,0E0,7.388294E-1,0E0,6.1190176E-1,0E0,1.6761914E-1,6.356158E-1,0E0,0E0,0E0,0E0],"parents":[2147483647,0,0,1,1,3,3,5,5,7,7,9,9,10,10],"right_children":[2,4,-1,6,-1,8,-1,10,-1,12,14,-1,-1,-1,-1],"split_conditions":[4.98835E-2,4.143881E-1,4.243909E-2,4.6342954E-1,4.3463405E-2,2.191442E-1,3.0863767E-2,-5.4446552E-2,1.0579312E-2,-6.860012E-1,-6.860012E-1,-1.0874218E-2,7.382765E-3,1.6653369E-3,-3.4878865E-2],"split_indices":[0,22,0,1,0,5,0,25,0,0,0,0,0,0,0],"split_type":[0,0,0,0,0,0,0,0,0,0,0,0,0,0,0],"sum_hessian":[1.9967503E1,1.5885378E1,4.082124E0,1.4344021E1,1.5413573E0,1.29095545E1,1.4344668E0,1.165367E1,1.2558836E0,3.1779993E0,8.475672E0,1.8363433E0,1.3416559E0,1.2886714E0,7.187E0],"tree_param":{"num_deleted":"0","num_feature":"30","num_nodes":"15","size_leaf_vector":"1"}},{"base_weights":[8.270236E-2,-3.083087E-1,5.555336E-1,-4.809652E-1,3.7305467E-2,-7.013651E-3,6.973445E-1,-5.689403E-1,8.37306E-3,3.8000967E-2,1.14969965E-2,-9.391946E-3,-3.0193096E-2],"categories":[],"categories_nodes":[],"categories_segments":[],"categories_sizes":[],"default_left":[0,0,0,0,0,0,0,0,0,0,0,0,0],"id":61,"left_children":[1,3,5,7,-1,-1,9,11,-1,-1,-1,-1,-1],"loss_changes":[3.9320126E0,2.5028896E0,1.0415475E0,7.0725775E-1,0E0,0E0,6.289029E-2,1.53160095E-2,0E0,0E0,0E0,0E0,0E0],"parents":[2147483647,0,0,1,1,2,2,3,3,6,6,7,7],"right_children":[2,4,6,8,-1,-1,10,12,-1,-1,-1,-1,-1],"split_conditions":[5.593728E-1,4.143881E-1,-4.872673E-1,9.6469626E-2,3.7305467E-2,-7.013651E-3,1.9173877E0,-1.6690506E0,8.37306E-3,3.8000967E-2,1.14969965E-2,-9.391946E-3,-3.0193096E-2],"split_indices":[16,22,19,13,0,0,16,19,0,0,0,0,0],"split_type":[0,0,0,0,0,0,0,0,0,0,0,0,0],"sum_hessian":[1.9341255E1,1.0777051E1,8.564205E0,9.727991E0,1.0490601E0,1.4517789E0,7.112426E0,8.673762E0,1.0542278E0,5.719456E0,1.39297E0,1.2635412E0,7.4102216E0],"tree_param":{"num_deleted":"0","num_feature":"30","num_nodes":"13","size_leaf_vector":"1"}},{"base_weights":[-6.273064E-2,-2.9230505E-1,4.0384237E-2,2.3154372E-1,-6.2060827E-1,-3.5288393E-2,6.4891917E-1,-8.14446E-1,1.06331766E-1,4.1939944E-2,3.515694E-3,-1.2008744E-2,-4.411546E-2,1.0054992E-2,-2.120605E-3],"categories":[],"categories_nodes":[],"categories_segments":[],"categories_sizes":[],"default_left":[0,0,0,0,0,0,0,0,0,0,0,0,0,0,0],"id":62,"left_children":[1,3,-1,5,7,-1,9,11,13,-1,-1,-1,-1,-1,-1],"loss_changes":[4.1417522E0,2.9298675E0,0E0,3.1846159E0,1.5281937E0,0E0,5.2807E-1,1.0736799E-1,5.135658E-2,0E0,0E0,0E0,0E0,0E0,0E0],"parents":[2147483647,0,0,1,1,3,3,4,4,6,6,7,7,8,8],"right_children":[2,4,-1,6,8,-1,10,12,14,-1,-1,-1,-1,-1,-1],"split_conditions":[9.317084E-2,-3.5795188E-1,4.0384237E-2,-6.9747263E-1,-4.1041395E-1,-3.5288393E-2,-4.2585602E-1,-9.455496E-1,-3.4170142E-1,4.1939944E-2,3.515694E-3,-1.2008744E-2,-4.411546E-2,1.0054992E-2,-2.120605E-3],"split_indices":[0,2,0,2,13,0,2,1,1,0,0,0,0,0,0],"split_type":[0,0,0,0,0,0,0,0,0,0,0,0,0,0,0],"sum_hessian":[1.8545403E1,1.5200426E1,3.3449762E0,5.9697194E0,9.230706E0,1.6263697E0,4.34335E0,7.192468E0,2.0382383E0,2.9316013E0,1.4117486E0,1.239838E0,5.95263E0,1.030009E0,1.0082293E0],"tree_param":{"num_deleted":"0","num_feature":"30","num_nodes":"15","size_leaf_vector":"1"}},{"base_weights":[4.748224E-2,-1.6056855E-1,4.211634E-2,-3.491829E-1,3.2618742E-2,-1.7730106E-1,-3.961378E-2,-3.5693295E-2,-6.680491E-3,-2.4476948E-1,4.6013162E-1,1.8743565E-2,-2.0918092E-2,3.2755793E-3,2.9737193E-2],"categories":[],"categories_nodes":[],"categories_segments":[],"categories_sizes":[],"default_left":[0,0,0,0,0,0,0,0,0,0,0,0,0,0,0],"id":63,"left_children":[1,3,-1,5,-1,7,-1,-1,9,11,13,-1,-1,-1,-1],"loss_changes":[3.2971578E0,2.6801696E0,0E0,8.978256E-1,0E0,1.0124402E0,0E0,0E0,1.1617918E0,8.994758E-1,1.488533E-1,0E0,0E0,0E0,0E0],"parents":[2147483647,0,0,1,1,3,3,5,5,8,8,9,9,10,10],"right_children":[2,4,-1,6,-1,8,-1,-1,10,12,14,-1,-1,-1,-1],"split_conditions":[5.843965E-1,4.6342954E-1,4.211634E-2,1.8384472E0,3.2618742E-2,-3.524223E-1,-3.961378E-2,-3.5693295E-2,5.593728E-1,-8.158632E-1,-2.4106003E-1,1.8743565E-2,-2.0918092E-2,3.2755793E-3,2.9737193E-2],"split_indices":[7,1,0,18,0,7,0,0,16,0,1,0,0,0,0],"split_type":[0,0,0,0,0,0,0,0,0,0,0,0,0,0,0],"sum_hessian":[1.8120424E1,1.4993784E1,3.12664E0,1.2633179E1,